<?xml version="1.0"?>
<opencv_storage>
<cascade>
  <stageType>BOOST</stageType>
  <featureType>HAAR</featureType>
  <height>20</height>
  <width>20</width>
  <stageParams>
    <boostType>GAB</boostType>
    <minHitRate>9.9500000476837158e-01</minHitRate>
    <maxFalseAlarm>5.0000000000000000e-01</maxFalseAlarm>
    <weightTrimRate>9.4999999999999996e-01</weightTrimRate>
    <maxDepth>1</maxDepth>
    <maxWeakCount>100</maxWeakCount></stageParams>
  <featureParams>
    <maxCatCount>0</maxCatCount>
    <featSize>1</featSize>
    <mode>BASIC</mode></featureParams>
  <stageNum>20</stageNum>
  <stages>
    <!-- stage 0 -->
    <_>
      <maxWeakCount>9</maxWeakCount>
      <stageThreshold>-1.1470128297805786e+00</stageThreshold>
      <weakClassifiers>
        <_>
          <internalNodes>
            0 -1 421 -1.1357096955180168e-02</internalNodes>
          <leafValues>
            7.7791488170623779e-01 -3.3456903696060181e-01</leafValues></_>
        <_>
          <internalNodes>
            0 -1 138 -1.5505457296967506e-02</internalNodes>
          <leafValues>
            5.7423973083496094e-01 -4.3534991145133972e-01</leafValues></_>
        <_>
          <internalNodes>
            0 -1 192 4.0796246379613876e-02</internalNodes>
          <leafValues>
            -3.4208503365516663e-01 6.2824171781539917e-01</leafValues></_>
        <_>
          <internalNodes>
            0 -1 406 -3.4807686461135745e-04</internalNodes>
          <leafValues>
            5.7427597045898438e-01 -2.9430213570594788e-01</leafValues></_>
        <_>
          <internalNodes>
            0 -1 207 2.0956255495548248e-02</internalNodes>
          <leafValues>
            -2.6766264438629150e-01 5.8401864767074585e-01</leafValues></_>
        <_>
          <internalNodes>
            0 -1 127 4.1601512930355966e-04</internalNodes>
          <leafValues>
            -3.0469152331352234e-01 5.1527488231658936e-01</leafValues></_>
        <_>
          <internalNodes>
            0 -1 453 8.3499904721975327e-03</internalNodes>
          <leafValues>
            -2.1224056184291840e-01 5.6105995178222656e-01</leafValues></_>
        <_>
          <internalNodes>
            0 -1 225 1.9638358207885176e-04</internalNodes>
          <leafValues>
            -2.4777981638908386e-01 4.4062188267707825e-01</leafValues></_>
        <_>
          <internalNodes>
            0 -1 360 8.3166472613811493e-03</internalNodes>
          <leafValues>
            -2.4615769088268280e-01 4.7170144319534302e-01</leafValues></_></weakClassifiers></_>
    <!-- stage 1 -->
    <_>
      <maxWeakCount>13</maxWeakCount>
      <stageThreshold>-1.2706630229949951e+00</stageThreshold>
      <weakClassifiers>
        <_>
          <internalNodes>
            0 -1 93 2.9315145686268806e-02</internalNodes>
          <leafValues>
            -2.7528089284896851e-01 7.3161762952804565e-01</leafValues></_>
        <_>
          <internalNodes>
            0 -1 97 4.6129804104566574e-02</internalNodes>
          <leafValues>
            -3.3426904678344727e-01 6.0970616340637207e-01</leafValues></_>
        <_>
          <internalNodes>
            0 -1 498 -2.4367332458496094e-02</internalNodes>
          <leafValues>
            5.6714648008346558e-01 -2.9860761761665344e-01</leafValues></_>
        <_>
          <internalNodes>
            0 -1 32 4.1089735925197601e-02</internalNodes>
          <leafValues>
            -1.9218795001506805e-01 7.2969603538513184e-01</leafValues></_>
        <_>
          <internalNodes>
            0 -1 452 -1.9738415721803904e-03</internalNodes>
          <leafValues>
            4.5164537429809570e-01 -3.1957006454467773e-01</leafValues></_>
        <_>
          <internalNodes>
            0 -1 236 2.0060695707798004e-02</internalNodes>
          <leafValues>
            -2.2159022092819214e-01 5.1116335391998291e-01</leafValues></_>
        <_>
          <internalNodes>
            0 -1 277 -2.6042062789201736e-02</internalNodes>
          <leafValues>
            4.9237656593322754e-01 -2.4050487577915192e-01</leafValues></_>
        <_>
          <internalNodes>
            0 -1 292 2.4189608171582222e-02</internalNodes>
          <leafValues>
            -2.0354291796684265e-01 6.0808950662612915e-01</leafValues></_>
        <_>
          <internalNodes>
            0 -1 11 1.5005400404334068e-02</internalNodes>
          <leafValues>
            -1.7230017483234406e-01 6.1012876033782959e-01</leafValues></_>
        <_>
          <internalNodes>
            0 -1 222 -2.6202427761745639e-05</internalNodes>
          <leafValues>
            3.4903830289840698e-01 -2.6624459028244019e-01</leafValues></_>
        <_>
          <internalNodes>
            0 -1 100 4.3212180025875568e-03</internalNodes>
          <leafValues>
            -1.6480144858360291e-01 5.6760883331298828e-01</leafValues></_>
        <_>
          <internalNodes>
            0 -1 224 -5.4074579384177923e-04</internalNodes>
          <leafValues>
            4.5505565404891968e-01 -1.7592774331569672e-01</leafValues></_>
        <_>
          <internalNodes>
            0 -1 567 -3.0048289336264133e-03</internalNodes>
          <leafValues>
            5.3098827600479126e-01 -1.4548751711845398e-01</leafValues></_></weakClassifiers></_>
    <!-- stage 2 -->
    <_>
      <maxWeakCount>15</maxWeakCount>
      <stageThreshold>-9.7829568386077881e-01</stageThreshold>
      <weakClassifiers>
        <_>
          <internalNodes>
            0 -1 26 8.9475445449352264e-02</internalNodes>
          <leafValues>
            -1.9298245012760162e-01 7.8976488113403320e-01</leafValues></_>
        <_>
          <internalNodes>
            0 -1 497 -2.7323475107550621e-02</internalNodes>
          <leafValues>
            6.7225682735443115e-01 -1.6754083335399628e-01</leafValues></_>
        <_>
          <internalNodes>
            0 -1 230 5.9628698974847794e-02</internalNodes>
          <leafValues>
            -2.3953108489513397e-01 5.5132997035980225e-01</leafValues></_>
        <_>
          <internalNodes>
            0 -1 247 5.0675183534622192e-02</internalNodes>
          <leafValues>
            1.4059805870056152e-01 -8.3222496509552002e-01</leafValues></_>
        <_>
          <internalNodes>
            0 -1 158 -3.2730765640735626e-02</internalNodes>
          <leafValues>
            4.9429017305374146e-01 -2.2418184578418732e-01</leafValues></_>
        <_>
          <internalNodes>
            0 -1 254 6.2354747205972672e-03</internalNodes>
          <leafValues>
            -2.4299770593643188e-01 5.2001249790191650e-01</leafValues></_>
        <_>
          <internalNodes>
            0 -1 33 3.1934045255184174e-02</internalNodes>
          <leafValues>
            -1.8952624499797821e-01 5.0535833835601807e-01</leafValues></_>
        <_>
          <internalNodes>
            0 -1 72 -7.3954961262643337e-03</internalNodes>
          <leafValues>
            6.3183790445327759e-01 -1.7358635365962982e-01</leafValues></_>
        <_>
          <internalNodes>
            0 -1 432 2.7428688481450081e-03</internalNodes>
          <leafValues>
            -1.8590250611305237e-01 4.5731404423713684e-01</leafValues></_>
        <_>
          <internalNodes>
            0 -1 361 1.7434420064091682e-02</internalNodes>
          <leafValues>
            -1.8512803316116333e-01 4.5865604281425476e-01</leafValues></_>
        <_>
          <internalNodes>
            0 -1 541 1.4682654291391373e-02</internalNodes>
          <leafValues>
            -1.6359157860279083e-01 5.1196223497390747e-01</leafValues></_>
        <_>
          <internalNodes>
            0 -1 220 5.6900661438703537e-03</internalNodes>
          <leafValues>
            -2.0703698694705963e-01 4.0426155924797058e-01</leafValues></_>
        <_>
          <internalNodes>
            0 -1 507 -3.1301181763410568e-02</internalNodes>
          <leafValues>
            7.5972336530685425e-01 -1.0264220833778381e-01</leafValues></_>
        <_>
          <internalNodes>
            0 -1 412 3.0279303900897503e-03</internalNodes>
          <leafValues>
            1.2298059463500977e-01 -7.7154451608657837e-01</leafValues></_>
        <_>
          <internalNodes>
            0 -1 109 9.6485381945967674e-03</internalNodes>
          <leafValues>
            -2.3800902068614960e-01 3.5721966624259949e-01</leafValues></_></weakClassifiers></_>
    <!-- stage 3 -->
    <_>
      <maxWeakCount>19</maxWeakCount>
      <stageThreshold>-9.6681290864944458e-01</stageThreshold>
      <weakClassifiers>
        <_>
          <internalNodes>
            0 -1 89 1.1326642334461212e-01</internalNodes>
          <leafValues>
            -1.4817813038825989e-01 7.3924916982650757e-01</leafValues></_>
        <_>
          <internalNodes>
            0 -1 29 2.1814372390508652e-02</internalNodes>
          <leafValues>
            -2.2098343074321747e-01 5.4649901390075684e-01</leafValues></_>
        <_>
          <internalNodes>
            0 -1 162 -7.5051173567771912e-02</internalNodes>
          <leafValues>
            6.9450753927230835e-01 -1.5849019587039948e-01</leafValues></_>
        <_>
          <internalNodes>
            0 -1 165 8.0850630998611450e-02</internalNodes>
          <leafValues>
            8.9312762022018433e-02 -7.8648203611373901e-01</leafValues></_>
        <_>
          <internalNodes>
            0 -1 370 3.0534490942955017e-03</internalNodes>
          <leafValues>
            -1.9099916517734528e-01 3.9991983771324158e-01</leafValues></_>
        <_>
          <internalNodes>
            0 -1 535 -4.7863848507404327e-02</internalNodes>
          <leafValues>
            5.2902370691299438e-01 -1.5995094180107117e-01</leafValues></_>
        <_>
          <internalNodes>
            0 -1 492 -2.5084966182475910e-05</internalNodes>
          <leafValues>
            2.8103923797607422e-01 -2.7922698855400085e-01</leafValues></_>
        <_>
          <internalNodes>
            0 -1 19 7.6997368596494198e-03</internalNodes>
          <leafValues>
            -1.5350331366062164e-01 4.8057457804679871e-01</leafValues></_>
        <_>
          <internalNodes>
            0 -1 265 -1.2737632496282458e-03</internalNodes>
          <leafValues>
            -6.0874104499816895e-01 1.2593321502208710e-01</leafValues></_>
        <_>
          <internalNodes>
            0 -1 511 2.8660438954830170e-02</internalNodes>
          <leafValues>
            -1.1243309080600739e-01 6.4876317977905273e-01</leafValues></_>
        <_>
          <internalNodes>
            0 -1 111 3.6826469004154205e-02</internalNodes>
          <leafValues>
            -1.2272582948207855e-01 5.5963122844696045e-01</leafValues></_>
        <_>
          <internalNodes>
            0 -1 234 -1.5118345618247986e-01</internalNodes>
          <leafValues>
            7.5309860706329346e-01 -9.0867154300212860e-02</leafValues></_>
        <_>
          <internalNodes>
            0 -1 240 2.8283750638365746e-02</internalNodes>
          <leafValues>
            -1.7821866273880005e-01 5.1757711172103882e-01</leafValues></_>
        <_>
          <internalNodes>
            0 -1 157 2.9967978596687317e-02</internalNodes>
          <leafValues>
            -1.8772669136524200e-01 3.9435666799545288e-01</leafValues></_>
        <_>
          <internalNodes>
            0 -1 542 -6.2018938479013741e-05</internalNodes>
          <leafValues>
            2.7565041184425354e-01 -2.7619105577468872e-01</leafValues></_>
        <_>
          <internalNodes>
            0 -1 440 -2.4691182261449285e-05</internalNodes>
          <leafValues>
            2.9644474387168884e-01 -2.5040659308433533e-01</leafValues></_>
        <_>
          <internalNodes>
            0 -1 217 6.1871446669101715e-03</internalNodes>
          <leafValues>
            -2.2511330246925354e-01 3.3618777990341187e-01</leafValues></_>
        <_>
          <internalNodes>
            0 -1 353 -5.0085550174117088e-03</internalNodes>
          <leafValues>
            -8.0474328994750977e-01 1.0407331585884094e-01</leafValues></_>
        <_>
          <internalNodes>
            0 -1 141 -2.2479947656393051e-02</internalNodes>
          <leafValues>
            6.9930392503738403e-01 -1.3371014595031738e-01</leafValues></_></weakClassifiers></_>
    <!-- stage 4 -->
    <_>
      <maxWeakCount>19</maxWeakCount>
      <stageThreshold>-9.8648756742477417e-01</stageThreshold>
      <weakClassifiers>
        <_>
          <internalNodes>
            0 -1 264 3.7421368062496185e-02</internalNodes>
          <leafValues>
            -1.4525139331817627e-01 6.4944648742675781e-01</leafValues></_>
        <_>
          <internalNodes>
            0 -1 480 -2.2765878587961197e-02</internalNodes>
          <leafValues>
            4.7684705257415771e-01 -2.8861999511718750e-01</leafValues></_>
        <_>
          <internalNodes>
            0 -1 242 -1.5062560141086578e-01</internalNodes>
          <leafValues>
            -7.3912715911865234e-01 1.6034629940986633e-01</leafValues></_>
        <_>
          <internalNodes>
            0 -1 156 2.0856664050370455e-03</internalNodes>
          <leafValues>
            -3.2919889688491821e-01 3.2506909966468811e-01</leafValues></_>
        <_>
          <internalNodes>
            0 -1 409 -2.3412657901644707e-03</internalNodes>
          <leafValues>
            3.7685695290565491e-01 -2.3121777176856995e-01</leafValues></_>
        <_>
          <internalNodes>
            0 -1 38 1.0642845183610916e-02</internalNodes>
          <leafValues>
            -2.3785500228404999e-01 4.2952489852905273e-01</leafValues></_>
        <_>
          <internalNodes>
            0 -1 372 -5.7384036481380463e-03</internalNodes>
          <leafValues>
            2.9029989242553711e-01 -3.0405822396278381e-01</leafValues></_>
        <_>
          <internalNodes>
            0 -1 204 2.4109514430165291e-02</internalNodes>
          <leafValues>
            -1.8516184389591217e-01 4.6405220031738281e-01</leafValues></_>
        <_>
          <internalNodes>
            0 -1 169 2.5188089348375797e-03</internalNodes>
          <leafValues>
            -2.4484933912754059e-01 3.4961363673210144e-01</leafValues></_>
        <_>
          <internalNodes>
            0 -1 447 3.5824743099510670e-03</internalNodes>
          <leafValues>
            -2.2686305642127991e-01 3.1743726134300232e-01</leafValues></_>
        <_>
          <internalNodes>
            0 -1 529 9.7926929593086243e-03</internalNodes>
          <leafValues>
            -1.5760873258113861e-01 4.6656355261802673e-01</leafValues></_>
        <_>
          <internalNodes>
            0 -1 235 6.5266825258731842e-03</internalNodes>
          <leafValues>
            -1.8108053505420685e-01 3.7194693088531494e-01</leafValues></_>
        <_>
          <internalNodes>
            0 -1 338 -4.1761752800084651e-04</internalNodes>
          <leafValues>
            3.7151613831520081e-01 -1.6965061426162720e-01</leafValues></_>
        <_>
          <internalNodes>
            0 -1 82 1.1569311842322350e-02</internalNodes>
          <leafValues>
            -1.4967411756515503e-01 4.4325616955757141e-01</leafValues></_>
        <_>
          <internalNodes>
            0 -1 104 4.4876327738165855e-03</internalNodes>
          <leafValues>
            -1.2399632483720779e-01 5.1147335767745972e-01</leafValues></_>
        <_>
          <internalNodes>
            0 -1 293 -5.8163329958915710e-03</internalNodes>
          <leafValues>
            4.0765583515167236e-01 -1.6563591361045837e-01</leafValues></_>
        <_>
          <internalNodes>
            0 -1 67 -1.0664272122085094e-02</internalNodes>
          <leafValues>
            3.8103967905044556e-01 -1.6278763115406036e-01</leafValues></_>
        <_>
          <internalNodes>
            0 -1 299 3.3213566057384014e-03</internalNodes>
          <leafValues>
            -1.7265355587005615e-01 3.7566879391670227e-01</leafValues></_>
        <_>
          <internalNodes>
            0 -1 237 3.1978540122509003e-02</internalNodes>
          <leafValues>
            -1.5975952148437500e-01 4.1353687644004822e-01</leafValues></_></weakClassifiers></_>
    <!-- stage 5 -->
    <_>
      <maxWeakCount>27</maxWeakCount>
      <stageThreshold>-9.8236387968063354e-01</stageThreshold>
      <weakClassifiers>
        <_>
          <internalNodes>
            0 -1 463 -2.9955424368381500e-02</internalNodes>
          <leafValues>
            6.5338647365570068e-01 -7.0351757109165192e-02</leafValues></_>
        <_>
          <internalNodes>
            0 -1 51 8.8240087032318115e-02</internalNodes>
          <leafValues>
            -2.1736998856067657e-01 4.1109102964401245e-01</leafValues></_>
        <_>
          <internalNodes>
            0 -1 22 2.9790990054607391e-02</internalNodes>
          <leafValues>
            -2.8972926735877991e-01 3.2671388983726501e-01</leafValues></_>
        <_>
          <internalNodes>
            0 -1 513 1.0879805311560631e-02</internalNodes>
          <leafValues>
            -1.5192669630050659e-01 5.0109636783599854e-01</leafValues></_>
        <_>
          <internalNodes>
            0 -1 474 -3.0609279870986938e-02</internalNodes>
          <leafValues>
            4.3898901343345642e-01 -1.7728322744369507e-01</leafValues></_>
        <_>
          <internalNodes>
            0 -1 69 -5.5889919400215149e-02</internalNodes>
          <leafValues>
            7.4147081375122070e-01 -8.0261960625648499e-02</leafValues></_>
        <_>
          <internalNodes>
            0 -1 376 -1.0076476261019707e-02</internalNodes>
          <leafValues>
            -8.6370611190795898e-01 9.8928146064281464e-02</leafValues></_>
        <_>
          <internalNodes>
            0 -1 6 1.0401593521237373e-02</internalNodes>
          <leafValues>
            -1.9025979936122894e-01 3.1820517778396606e-01</leafValues></_>
        <_>
          <internalNodes>
            0 -1 106 4.1435126215219498e-02</internalNodes>
          <leafValues>
            -1.0277938842773438e-01 5.8930557966232300e-01</leafValues></_>
        <_>
          <internalNodes>
            0 -1 346 -8.0436822026968002e-03</internalNodes>
          <leafValues>
            -8.0557811260223389e-01 8.3825804293155670e-02</leafValues></_>
        <_>
          <internalNodes>
            0 -1 98 7.7165067195892334e-03</internalNodes>
          <leafValues>
            -1.3989160954952240e-01 4.3293884396553040e-01</leafValues></_>
        <_>
          <internalNodes>
            0 -1 214 5.1242303103208542e-02</internalNodes>
          <leafValues>
            -1.4189733564853668e-01 4.3190151453018188e-01</leafValues></_>
        <_>
          <internalNodes>
            0 -1 368 3.6871249321848154e-03</internalNodes>
          <leafValues>
            -2.1072550117969513e-01 2.8979095816612244e-01</leafValues></_>
        <_>
          <internalNodes>
            0 -1 287 7.9668626189231873e-02</internalNodes>
          <leafValues>
            9.8005987703800201e-02 -6.4060634374618530e-01</leafValues></_>
        <_>
          <internalNodes>
            0 -1 260 2.5332558434456587e-03</internalNodes>
          <leafValues>
            -2.3169590532779694e-01 2.5171017646789551e-01</leafValues></_>
        <_>
          <internalNodes>
            0 -1 434 9.2096030712127686e-03</internalNodes>
          <leafValues>
            -1.5234754979610443e-01 4.0107989311218262e-01</leafValues></_>
        <_>
          <internalNodes>
            0 -1 364 -1.5958197414875031e-01</internalNodes>
          <leafValues>
            -7.2888028621673584e-01 8.6877778172492981e-02</leafValues></_>
        <_>
          <internalNodes>
            0 -1 465 4.2368462309241295e-03</internalNodes>
          <leafValues>
            -3.6954733729362488e-01 1.7523601651191711e-01</leafValues></_>
        <_>
          <internalNodes>
            0 -1 289 4.8470690846443176e-02</internalNodes>
          <leafValues>
            -1.4564172923564911e-01 4.2646878957748413e-01</leafValues></_>
        <_>
          <internalNodes>
            0 -1 418 1.1499863117933273e-02</internalNodes>
          <leafValues>
            -1.8383000791072845e-01 3.2523655891418457e-01</leafValues></_>
        <_>
          <internalNodes>
            0 -1 188 -1.6241997480392456e-02</internalNodes>
          <leafValues>
            6.1416000127792358e-01 -9.1140978038311005e-02</leafValues></_>
        <_>
          <internalNodes>
            0 -1 496 2.2961059585213661e-02</internalNodes>
          <leafValues>
            -7.3321960866451263e-02 6.0837537050247192e-01</leafValues></_>
        <_>
          <internalNodes>
            0 -1 459 -5.2347192540764809e-03</internalNodes>
          <leafValues>
            -6.9117981195449829e-01 9.2895284295082092e-02</leafValues></_>
        <_>
          <internalNodes>
            0 -1 103 2.4496878031641245e-03</internalNodes>
          <leafValues>
            -1.2976054847240448e-01 4.5002385973930359e-01</leafValues></_>
        <_>
          <internalNodes>
            0 -1 92 2.5207512080669403e-02</internalNodes>
          <leafValues>
            -1.6602045297622681e-01 3.0468884110450745e-01</leafValues></_>
        <_>
          <internalNodes>
            0 -1 324 2.6434012688696384e-03</internalNodes>
          <leafValues>
            -2.6509943604469299e-01 1.9419114291667938e-01</leafValues></_>
        <_>
          <internalNodes>
            0 -1 378 6.5906513482332230e-03</internalNodes>
          <leafValues>
            6.9127492606639862e-02 -6.9937938451766968e-01</leafValues></_></weakClassifiers></_>
    <!-- stage 6 -->
    <_>
      <maxWeakCount>26</maxWeakCount>
      <stageThreshold>-8.9566320180892944e-01</stageThreshold>
      <weakClassifiers>
        <_>
          <internalNodes>
            0 -1 154 9.5497742295265198e-02</internalNodes>
          <leafValues>
            2.9560202732682228e-02 6.5422695875167847e-01</leafValues></_>
        <_>
          <internalNodes>
            0 -1 494 -2.5026056915521622e-02</internalNodes>
          <leafValues>
            3.9171212911605835e-01 -2.7192988991737366e-01</leafValues></_>
        <_>
          <internalNodes>
            0 -1 118 9.8624201491475105e-03</internalNodes>
          <leafValues>
            -2.8705674409866333e-01 2.9990530014038086e-01</leafValues></_>
        <_>
          <internalNodes>
            0 -1 175 -4.0100496262311935e-03</internalNodes>
          <leafValues>
            1.9686742126941681e-01 -3.4150454401969910e-01</leafValues></_>
        <_>
          <internalNodes>
            0 -1 502 6.0631167143583298e-03</internalNodes>
          <leafValues>
            -2.4133358895778656e-01 2.6138168573379517e-01</leafValues></_>
        <_>
          <internalNodes>
            0 -1 208 3.5257648676633835e-02</internalNodes>
          <leafValues>
            -1.7975562810897827e-01 4.4508433341979980e-01</leafValues></_>
        <_>
          <internalNodes>
            0 -1 274 2.8274809010326862e-03</internalNodes>
          <leafValues>
            1.1286392807960510e-01 -6.3858938217163086e-01</leafValues></_>
        <_>
          <internalNodes>
            0 -1 78 -6.7174280993640423e-03</internalNodes>
          <leafValues>
            3.8015961647033691e-01 -1.4557960629463196e-01</leafValues></_>
        <_>
          <internalNodes>
            0 -1 116 -1.4089745469391346e-02</internalNodes>
          <leafValues>
            6.2069857120513916e-01 -1.1237807571887970e-01</leafValues></_>
        <_>
          <internalNodes>
            0 -1 55 3.5396978259086609e-02</internalNodes>
          <leafValues>
            -1.4489193260669708e-01 3.9915081858634949e-01</leafValues></_>
        <_>
          <internalNodes>
            0 -1 281 -8.6379125714302063e-03</internalNodes>
          <leafValues>
            2.6929989457130432e-01 -2.1581244468688965e-01</leafValues></_>
        <_>
          <internalNodes>
            0 -1 531 -8.5696578025817871e-03</internalNodes>
          <leafValues>
            4.1239202022552490e-01 -1.4399716258049011e-01</leafValues></_>
        <_>
          <internalNodes>
            0 -1 288 2.5515735149383545e-02</internalNodes>
          <leafValues>
            -1.4442457258701324e-01 3.9909675717353821e-01</leafValues></_>
        <_>
          <internalNodes>
            0 -1 167 8.4294732660055161e-03</internalNodes>
          <leafValues>
            -1.4836913347244263e-01 4.1740474104881287e-01</leafValues></_>
        <_>
          <internalNodes>
            0 -1 540 1.1334028095006943e-02</internalNodes>
          <leafValues>
            8.6630210280418396e-02 -8.1479769945144653e-01</leafValues></_>
        <_>
          <internalNodes>
            0 -1 532 -2.6289666071534157e-02</internalNodes>
          <leafValues>
            5.7302123308181763e-01 -1.1675976961851120e-01</leafValues></_>
        <_>
          <internalNodes>
            0 -1 461 -2.5121640646830201e-04</internalNodes>
          <leafValues>
            2.4788805842399597e-01 -2.3267313838005066e-01</leafValues></_>
        <_>
          <internalNodes>
            0 -1 52 -6.8584401160478592e-03</internalNodes>
          <leafValues>
            6.0103207826614380e-01 -1.0383027046918869e-01</leafValues></_>
        <_>
          <internalNodes>
            0 -1 191 1.8763691186904907e-02</internalNodes>
          <leafValues>
            9.4983652234077454e-02 -6.8972438573837280e-01</leafValues></_>
        <_>
          <internalNodes>
            0 -1 276 -1.1072087287902832e-01</internalNodes>
          <leafValues>
            -6.1386895179748535e-01 7.2056591510772705e-02</leafValues></_>
        <_>
          <internalNodes>
            0 -1 363 -1.0005544871091843e-02</internalNodes>
          <leafValues>
            3.8116064667701721e-01 -1.6518989205360413e-01</leafValues></_>
        <_>
          <internalNodes>
            0 -1 322 -2.0194761455059052e-03</internalNodes>
          <leafValues>
            -5.7541882991790771e-01 9.9092282354831696e-02</leafValues></_>
        <_>
          <internalNodes>
            0 -1 533 2.9330752789974213e-02</internalNodes>
          <leafValues>
            -8.9478284120559692e-02 6.4262527227401733e-01</leafValues></_>
        <_>
          <internalNodes>
            0 -1 113 2.1784011274576187e-02</internalNodes>
          <leafValues>
            -1.3010479509830475e-01 3.5081475973129272e-01</leafValues></_>
        <_>
          <internalNodes>
            0 -1 524 4.6994045376777649e-02</internalNodes>
          <leafValues>
            -8.8537856936454773e-02 6.2075066566467285e-01</leafValues></_>
        <_>
          <internalNodes>
            0 -1 151 3.1631723046302795e-02</internalNodes>
          <leafValues>
            7.5252540409564972e-02 -8.2306146621704102e-01</leafValues></_></weakClassifiers></_>
    <!-- stage 7 -->
    <_>
      <maxWeakCount>23</maxWeakCount>
      <stageThreshold>-9.8583364486694336e-01</stageThreshold>
      <weakClassifiers>
        <_>
          <internalNodes>
            0 -1 385 3.0144080519676208e-02</internalNodes>
          <leafValues>
            -2.4740623310208321e-02 6.4340013265609741e-01</leafValues></_>
        <_>
          <internalNodes>
            0 -1 180 -4.5968048274517059e-02</internalNodes>
          <leafValues>
            3.2033166289329529e-01 -3.6368420720100403e-01</leafValues></_>
        <_>
          <internalNodes>
            0 -1 25 -3.7039697170257568e-02</internalNodes>
          <leafValues>
            4.0547934174537659e-01 -2.6284825801849365e-01</leafValues></_>
        <_>
          <internalNodes>
            0 -1 160 5.6395143474219367e-05</internalNodes>
          <leafValues>
            -3.1848877668380737e-01 2.2253865003585815e-01</leafValues></_>
        <_>
          <internalNodes>
            0 -1 491 5.5029713548719883e-03</internalNodes>
          <leafValues>
            -1.7575013637542725e-01 3.9965832233428955e-01</leafValues></_>
        <_>
          <internalNodes>
            0 -1 470 -1.8221247941255569e-02</internalNodes>
          <leafValues>
            5.0475811958312988e-01 -1.4422710239887238e-01</leafValues></_>
        <_>
          <internalNodes>
            0 -1 303 4.6493075788021088e-03</internalNodes>
          <leafValues>
            -1.9038763642311096e-01 3.6091098189353943e-01</leafValues></_>
        <_>
          <internalNodes>
            0 -1 473 3.5045195370912552e-02</internalNodes>
          <leafValues>
            -1.1625681072473526e-01 6.8203979730606079e-01</leafValues></_>
        <_>
          <internalNodes>
            0 -1 468 -2.5415193289518356e-02</internalNodes>
          <leafValues>
            2.8909292817115784e-01 -2.6869621872901917e-01</leafValues></_>
        <_>
          <internalNodes>
            0 -1 85 2.9299105517566204e-03</internalNodes>
          <leafValues>
            -1.3525556027889252e-01 4.6374356746673584e-01</leafValues></_>
        <_>
          <internalNodes>
            0 -1 232 3.9421193301677704e-02</internalNodes>
          <leafValues>
            -1.1543361097574234e-01 5.5412083864212036e-01</leafValues></_>
        <_>
          <internalNodes>
            0 -1 359 5.5909567890921608e-05</internalNodes>
          <leafValues>
            -2.0558273792266846e-01 2.8681692481040955e-01</leafValues></_>
        <_>
          <internalNodes>
            0 -1 488 -2.2524041123688221e-03</internalNodes>
          <leafValues>
            2.3238150775432587e-01 -2.4657113850116730e-01</leafValues></_>
        <_>
          <internalNodes>
            0 -1 54 -4.3327412568032742e-03</internalNodes>
          <leafValues>
            3.0358406901359558e-01 -2.0229025185108185e-01</leafValues></_>
        <_>
          <internalNodes>
            0 -1 536 -7.7288858592510223e-03</internalNodes>
          <leafValues>
            -7.2467565536499023e-01 8.2362905144691467e-02</leafValues></_>
        <_>
          <internalNodes>
            0 -1 536 9.6214655786752701e-03</internalNodes>
          <leafValues>
            6.8346455693244934e-02 -8.3553367853164673e-01</leafValues></_>
        <_>
          <internalNodes>
            0 -1 61 5.4141029715538025e-02</internalNodes>
          <leafValues>
            -8.9016437530517578e-02 6.3785451650619507e-01</leafValues></_>
        <_>
          <internalNodes>
            0 -1 188 -1.5033887699246407e-02</internalNodes>
          <leafValues>
            5.5639380216598511e-01 -7.7070623636245728e-02</leafValues></_>
        <_>
          <internalNodes>
            0 -1 441 5.9909038245677948e-03</internalNodes>
          <leafValues>
            8.3634153008460999e-02 -6.9225919246673584e-01</leafValues></_>
        <_>
          <internalNodes>
            0 -1 457 -3.9529435336589813e-02</internalNodes>
          <leafValues>
            4.5979398488998413e-01 -1.2274473905563354e-01</leafValues></_>
        <_>
          <internalNodes>
            0 -1 371 -2.6364084333181381e-03</internalNodes>
          <leafValues>
            1.9701643288135529e-01 -2.6488205790519714e-01</leafValues></_>
        <_>
          <internalNodes>
            0 -1 246 2.3189272731542587e-02</internalNodes>
          <leafValues>
            -1.5873520076274872e-01 3.6513471603393555e-01</leafValues></_>
        <_>
          <internalNodes>
            0 -1 244 -5.8710135519504547e-02</internalNodes>
          <leafValues>
            4.6297198534011841e-01 -1.4572380483150482e-01</leafValues></_></weakClassifiers></_>
    <!-- stage 8 -->
    <_>
      <maxWeakCount>25</maxWeakCount>
      <stageThreshold>-9.5408684015274048e-01</stageThreshold>
      <weakClassifiers>
        <_>
          <internalNodes>
            0 -1 483 -5.8020406868308783e-05</internalNodes>
          <leafValues>
            5.8028984069824219e-01 -1.0358974337577820e-01</leafValues></_>
        <_>
          <internalNodes>
            0 -1 153 3.3139325678348541e-02</internalNodes>
          <leafValues>
            -2.2181628644466400e-01 4.2988574504852295e-01</leafValues></_>
        <_>
          <internalNodes>
            0 -1 273 2.0428280549822375e-05</internalNodes>
          <leafValues>
            -3.2762923836708069e-01 3.1740769743919373e-01</leafValues></_>
        <_>
          <internalNodes>
            0 -1 476 -5.2355518564581871e-03</internalNodes>
          <leafValues>
            -6.6275137662887573e-01 1.2963308393955231e-01</leafValues></_>
        <_>
          <internalNodes>
            0 -1 181 -4.9423942982684821e-05</internalNodes>
          <leafValues>
            2.6414224505424500e-01 -3.0913153290748596e-01</leafValues></_>
        <_>
          <internalNodes>
            0 -1 325 1.1744129005819559e-03</internalNodes>
          <leafValues>
            9.9416233599185944e-02 -6.0439276695251465e-01</leafValues></_>
        <_>
          <internalNodes>
            0 -1 467 -5.8994521386921406e-03</internalNodes>
          <leafValues>
            1.8668420612812042e-01 -3.5026168823242188e-01</leafValues></_>
        <_>
          <internalNodes>
            0 -1 315 6.3803381635807455e-05</internalNodes>
          <leafValues>
            -2.3323443531990051e-01 2.8679367899894714e-01</leafValues></_>
        <_>
          <internalNodes>
            0 -1 127 6.0705016949214041e-05</internalNodes>
          <leafValues>
            -3.3628258109092712e-01 1.8882246315479279e-01</leafValues></_>
        <_>
          <internalNodes>
            0 -1 272 -5.3402297198772430e-02</internalNodes>
          <leafValues>
            5.7477378845214844e-01 -1.2176059186458588e-01</leafValues></_>
        <_>
          <internalNodes>
            0 -1 179 7.3401308618485928e-03</internalNodes>
          <leafValues>
            -1.9676613807678223e-01 3.2007342576980591e-01</leafValues></_>
        <_>
          <internalNodes>
            0 -1 326 -4.1359895840287209e-03</internalNodes>
          <leafValues>
            -6.4150112867355347e-01 9.0392500162124634e-02</leafValues></_>
        <_>
          <internalNodes>
            0 -1 125 8.8856928050518036e-02</internalNodes>
          <leafValues>
            -1.1539916694164276e-01 5.5349487066268921e-01</leafValues></_>
        <_>
          <internalNodes>
            0 -1 252 1.6511987196281552e-03</internalNodes>
          <leafValues>
            -2.3162946105003357e-01 2.8465995192527771e-01</leafValues></_>
        <_>
          <internalNodes>
            0 -1 223 -2.0527626475086436e-05</internalNodes>
          <leafValues>
            2.1888460218906403e-01 -2.8578358888626099e-01</leafValues></_>
        <_>
          <internalNodes>
            0 -1 405 -5.4881777614355087e-03</internalNodes>
          <leafValues>
            -8.3906435966491699e-01 6.4836099743843079e-02</leafValues></_>
        <_>
          <internalNodes>
            0 -1 544 -5.0887487304862589e-05</internalNodes>
          <leafValues>
            2.0592422783374786e-01 -2.5606915354728699e-01</leafValues></_>
        <_>
          <internalNodes>
            0 -1 10 1.8774321069940925e-03</internalNodes>
          <leafValues>
            -1.8822239339351654e-01 2.7568945288658142e-01</leafValues></_>
        <_>
          <internalNodes>
            0 -1 267 4.4620921835303307e-03</internalNodes>
          <leafValues>
            7.8230790793895721e-02 -6.8754148483276367e-01</leafValues></_>
        <_>
          <internalNodes>
            0 -1 557 -7.3438026010990143e-03</internalNodes>
          <leafValues>
            4.1422334313392639e-01 -1.3296723365783691e-01</leafValues></_>
        <_>
          <internalNodes>
            0 -1 238 5.2434708777582273e-05</internalNodes>
          <leafValues>
            -2.4002845585346222e-01 2.3890791833400726e-01</leafValues></_>
        <_>
          <internalNodes>
            0 -1 84 1.8116292776539922e-03</internalNodes>
          <leafValues>
            -2.3851124942302704e-01 2.6716327667236328e-01</leafValues></_>
        <_>
          <internalNodes>
            0 -1 140 -6.0175091028213501e-02</internalNodes>
          <leafValues>
            4.5882105827331543e-01 -1.0743658989667892e-01</leafValues></_>
        <_>
          <internalNodes>
            0 -1 508 -6.4553765696473420e-05</internalNodes>
          <leafValues>
            2.1198984980583191e-01 -2.5087106227874756e-01</leafValues></_>
        <_>
          <internalNodes>
            0 -1 503 -3.1093265861272812e-02</internalNodes>
          <leafValues>
            5.2508068084716797e-01 -9.5748767256736755e-02</leafValues></_></weakClassifiers></_>
    <!-- stage 9 -->
    <_>
      <maxWeakCount>32</maxWeakCount>
      <stageThreshold>-8.5850685834884644e-01</stageThreshold>
      <weakClassifiers>
        <_>
          <internalNodes>
            0 -1 89 1.7616340517997742e-01</internalNodes>
          <leafValues>
            8.8254809379577637e-02 6.4291703701019287e-01</leafValues></_>
        <_>
          <internalNodes>
            0 -1 255 7.0060240104794502e-03</internalNodes>
          <leafValues>
            -2.1285332739353180e-01 3.5143741965293884e-01</leafValues></_>
        <_>
          <internalNodes>
            0 -1 499 -7.5862601399421692e-02</internalNodes>
          <leafValues>
            3.6870557069778442e-01 -1.8969978392124176e-01</leafValues></_>
        <_>
          <internalNodes>
            0 -1 4 1.4653271064162254e-02</internalNodes>
          <leafValues>
            -1.8121443688869476e-01 4.6302300691604614e-01</leafValues></_>
        <_>
          <internalNodes>
            0 -1 283 -2.3699712008237839e-02</internalNodes>
          <leafValues>
            2.6247599720954895e-01 -2.3309476673603058e-01</leafValues></_>
        <_>
          <internalNodes>
            0 -1 210 4.0989607572555542e-02</internalNodes>
          <leafValues>
            8.7177515029907227e-02 -7.2005766630172729e-01</leafValues></_>
        <_>
          <internalNodes>
            0 -1 212 -5.5201329290866852e-02</internalNodes>
          <leafValues>
            6.5172314643859863e-01 -1.1284119635820389e-01</leafValues></_>
        <_>
          <internalNodes>
            0 -1 337 2.8632939793169498e-03</internalNodes>
          <leafValues>
            -2.0938932895660400e-01 3.3415859937667847e-01</leafValues></_>
        <_>
          <internalNodes>
            0 -1 71 2.0691180601716042e-02</internalNodes>
          <leafValues>
            -1.7711472511291504e-01 3.2650995254516602e-01</leafValues></_>
        <_>
          <internalNodes>
            0 -1 15 -2.4137010797858238e-02</internalNodes>
          <leafValues>
            7.5199246406555176e-01 -7.1497261524200439e-02</leafValues></_>
        <_>
          <internalNodes>
            0 -1 409 -2.4075824767351151e-03</internalNodes>
          <leafValues>
            3.0643492937088013e-01 -1.7041993141174316e-01</leafValues></_>
        <_>
          <internalNodes>
            0 -1 94 3.8979902863502502e-02</internalNodes>
          <leafValues>
            -1.2158512324094772e-01 4.0205696225166321e-01</leafValues></_>
        <_>
          <internalNodes>
            0 -1 296 6.2494203448295593e-02</internalNodes>
          <leafValues>
            -8.7274290621280670e-02 5.8507972955703735e-01</leafValues></_>
        <_>
          <internalNodes>
            0 -1 219 2.3918103426694870e-02</internalNodes>
          <leafValues>
            1.0762716829776764e-01 -5.6674671173095703e-01</leafValues></_>
        <_>
          <internalNodes>
            0 -1 358 2.6176279783248901e-01</internalNodes>
          <leafValues>
            5.9707596898078918e-02 -7.5767081975936890e-01</leafValues></_>
        <_>
          <internalNodes>
            0 -1 547 -5.2901869639754295e-03</internalNodes>
          <leafValues>
            -6.1597496271133423e-01 6.4252592623233795e-02</leafValues></_>
        <_>
          <internalNodes>
            0 -1 342 3.9383862167596817e-03</internalNodes>
          <leafValues>
            -1.4834035933017731e-01 3.4437140822410583e-01</leafValues></_>
        <_>
          <internalNodes>
            0 -1 139 3.7178769707679749e-02</internalNodes>
          <leafValues>
            7.0507794618606567e-02 -7.6739990711212158e-01</leafValues></_>
        <_>
          <internalNodes>
            0 -1 221 8.6884554475545883e-03</internalNodes>
          <leafValues>
            -1.2932117283344269e-01 3.9813807606697083e-01</leafValues></_>
        <_>
          <internalNodes>
            0 -1 258 7.0560802705585957e-03</internalNodes>
          <leafValues>
            -1.9554941356182098e-01 2.5949099659919739e-01</leafValues></_>
        <_>
          <internalNodes>
            0 -1 384 2.1892730146646500e-03</internalNodes>
          <leafValues>
            6.0629554092884064e-02 -7.4052047729492188e-01</leafValues></_>
        <_>
          <internalNodes>
            0 -1 27 9.1294758021831512e-03</internalNodes>
          <leafValues>
            -1.2274154275655746e-01 4.3102550506591797e-01</leafValues></_>
        <_>
          <internalNodes>
            0 -1 525 -3.8613793440163136e-03</internalNodes>
          <leafValues>
            -4.6356034278869629e-01 1.1248461157083511e-01</leafValues></_>
        <_>
          <internalNodes>
            0 -1 344 5.9023583307862282e-03</internalNodes>
          <leafValues>
            -1.4089187979698181e-01 3.6070007085800171e-01</leafValues></_>
        <_>
          <internalNodes>
            0 -1 128 1.9323799014091492e-01</internalNodes>
          <leafValues>
            7.8428223729133606e-02 -6.6749048233032227e-01</leafValues></_>
        <_>
          <internalNodes>
            0 -1 48 6.4487487077713013e-02</internalNodes>
          <leafValues>
            8.3373911678791046e-02 -5.0302195549011230e-01</leafValues></_>
        <_>
          <internalNodes>
            0 -1 486 1.4148309826850891e-02</internalNodes>
          <leafValues>
            -2.7823123335838318e-01 1.6818964481353760e-01</leafValues></_>
        <_>
          <internalNodes>
            0 -1 442 -8.3286557346582413e-03</internalNodes>
          <leafValues>
            3.5520851612091064e-01 -1.3681490719318390e-01</leafValues></_>
        <_>
          <internalNodes>
            0 -1 126 3.6555550992488861e-02</internalNodes>
          <leafValues>
            -1.6316440701484680e-01 3.5828968882560730e-01</leafValues></_>
        <_>
          <internalNodes>
            0 -1 130 6.3838846981525421e-02</internalNodes>
          <leafValues>
            -1.4101418852806091e-01 3.3686703443527222e-01</leafValues></_>
        <_>
          <internalNodes>
            0 -1 504 -1.4460215345025063e-02</internalNodes>
          <leafValues>
            -6.6119223833084106e-01 8.1765793263912201e-02</leafValues></_>
        <_>
          <internalNodes>
            0 -1 59 -3.8850479759275913e-03</internalNodes>
          <leafValues>
            -4.7307348251342773e-01 8.6455062031745911e-02</leafValues></_></weakClassifiers></_>
    <!-- stage 10 -->
    <_>
      <maxWeakCount>36</maxWeakCount>
      <stageThreshold>-9.4630968570709229e-01</stageThreshold>
      <weakClassifiers>
        <_>
          <internalNodes>
            0 -1 90 1.4367517828941345e-01</internalNodes>
          <leafValues>
            1.1455847322940826e-01 6.9140625000000000e-01</leafValues></_>
        <_>
          <internalNodes>
            0 -1 136 7.4514271691441536e-03</internalNodes>
          <leafValues>
            -2.0740057528018951e-01 3.3272629976272583e-01</leafValues></_>
        <_>
          <internalNodes>
            0 -1 243 -1.3720822334289551e-01</internalNodes>
          <leafValues>
            -6.0678029060363770e-01 1.1864275485277176e-01</leafValues></_>
        <_>
          <internalNodes>
            0 -1 228 1.1040081735700369e-03</internalNodes>
          <leafValues>
            -2.1932765841484070e-01 2.8520190715789795e-01</leafValues></_>
        <_>
          <internalNodes>
            0 -1 178 6.1549711972475052e-03</internalNodes>
          <leafValues>
            -2.4251620471477509e-01 2.1962846815586090e-01</leafValues></_>
        <_>
          <internalNodes>
            0 -1 205 6.2058918178081512e-02</internalNodes>
          <leafValues>
            9.2023767530918121e-02 -5.9293788671493530e-01</leafValues></_>
        <_>
          <internalNodes>
            0 -1 475 -7.5726346112787724e-03</internalNodes>
          <leafValues>
            5.1760202646255493e-01 -1.1232293397188187e-01</leafValues></_>
        <_>
          <internalNodes>
            0 -1 512 -5.5862840265035629e-02</internalNodes>
          <leafValues>
            4.8172956705093384e-01 -9.1348871588706970e-02</leafValues></_>
        <_>
          <internalNodes>
            0 -1 454 2.6688454672694206e-03</internalNodes>
          <leafValues>
            -1.6709363460540771e-01 3.2066822052001953e-01</leafValues></_>
        <_>
          <internalNodes>
            0 -1 309 9.3573275953531265e-03</internalNodes>
          <leafValues>
            -1.3725401461124420e-01 3.6751931905746460e-01</leafValues></_>
        <_>
          <internalNodes>
            0 -1 36 -1.4641260728240013e-02</internalNodes>
          <leafValues>
            5.2204948663711548e-01 -9.6955284476280212e-02</leafValues></_>
        <_>
          <internalNodes>
            0 -1 216 6.7446809262037277e-03</internalNodes>
          <leafValues>
            -1.6451004147529602e-01 2.7767699956893921e-01</leafValues></_>
        <_>
          <internalNodes>
            0 -1 253 5.6873140856623650e-03</internalNodes>
          <leafValues>
            -1.8173013627529144e-01 3.0801504850387573e-01</leafValues></_>
        <_>
          <internalNodes>
            0 -1 413 5.3755110129714012e-03</internalNodes>
          <leafValues>
            8.7254479527473450e-02 -6.1669749021530151e-01</leafValues></_>
        <_>
          <internalNodes>
            0 -1 549 -5.8192145079374313e-03</internalNodes>
          <leafValues>
            -7.0651036500930786e-01 5.4340764880180359e-02</leafValues></_>
        <_>
          <internalNodes>
            0 -1 518 -8.4120463579893112e-03</internalNodes>
          <leafValues>
            4.4687953591346741e-01 -1.3199670612812042e-01</leafValues></_>
        <_>
          <internalNodes>
            0 -1 402 4.3893572874367237e-03</internalNodes>
          <leafValues>
            7.9465620219707489e-02 -5.7733917236328125e-01</leafValues></_>
        <_>
          <internalNodes>
            0 -1 450 -1.3896709308028221e-02</internalNodes>
          <leafValues>
            3.2166519761085510e-01 -1.2970092892646790e-01</leafValues></_>
        <_>
          <internalNodes>
            0 -1 96 4.1191321797668934e-03</internalNodes>
          <leafValues>
            -2.1598376333713531e-01 2.0624694228172302e-01</leafValues></_>
        <_>
          <internalNodes>
            0 -1 42 2.2516462951898575e-02</internalNodes>
          <leafValues>
            -9.6685238182544708e-02 4.2022803425788879e-01</leafValues></_>
        <_>
          <internalNodes>
            0 -1 250 1.7323898151516914e-02</internalNodes>
          <leafValues>
            -1.1777827143669128e-01 3.5411792993545532e-01</leafValues></_>
        <_>
          <internalNodes>
            0 -1 290 -1.3095837086439133e-02</internalNodes>
          <leafValues>
            3.6738982796669006e-01 -1.2535253167152405e-01</leafValues></_>
        <_>
          <internalNodes>
            0 -1 319 6.2007969245314598e-04</internalNodes>
          <leafValues>
            -1.2500272691249847e-01 3.3168464899063110e-01</leafValues></_>
        <_>
          <internalNodes>
            0 -1 349 3.7412764504551888e-03</internalNodes>
          <leafValues>
            8.7602749466896057e-02 -5.8963650465011597e-01</leafValues></_>
        <_>
          <internalNodes>
            0 -1 389 -2.5111676659435034e-03</internalNodes>
          <leafValues>
            3.3161404728889465e-01 -1.3006317615509033e-01</leafValues></_>
        <_>
          <internalNodes>
            0 -1 323 3.2178163528442383e-03</internalNodes>
          <leafValues>
            9.0976715087890625e-02 -4.8433586955070496e-01</leafValues></_>
        <_>
          <internalNodes>
            0 -1 268 4.6336408704519272e-03</internalNodes>
          <leafValues>
            -2.0179964601993561e-01 2.3346799612045288e-01</leafValues></_>
        <_>
          <internalNodes>
            0 -1 101 -5.3578987717628479e-03</internalNodes>
          <leafValues>
            4.5704817771911621e-01 -8.7742850184440613e-02</leafValues></_>
        <_>
          <internalNodes>
            0 -1 145 -6.9017391651868820e-03</internalNodes>
          <leafValues>
            3.8186094164848328e-01 -1.0945020616054535e-01</leafValues></_>
        <_>
          <internalNodes>
            0 -1 394 -8.2997411489486694e-02</internalNodes>
          <leafValues>
            -5.6571578979492188e-01 7.9707913100719452e-02</leafValues></_>
        <_>
          <internalNodes>
            0 -1 269 -1.5750694274902344e-01</internalNodes>
          <leafValues>
            -7.5218784809112549e-01 5.1324293017387390e-02</leafValues></_>
        <_>
          <internalNodes>
            0 -1 355 -6.5737048862501979e-04</internalNodes>
          <leafValues>
            2.1879589557647705e-01 -1.8931674957275391e-01</leafValues></_>
        <_>
          <internalNodes>
            0 -1 451 3.9019631221890450e-03</internalNodes>
          <leafValues>
            7.0980429649353027e-02 -6.4476913213729858e-01</leafValues></_>
        <_>
          <internalNodes>
            0 -1 449 -6.3539706170558929e-03</internalNodes>
          <leafValues>
            -6.8680828809738159e-01 5.2528411149978638e-02</leafValues></_>
        <_>
          <internalNodes>
            0 -1 161 3.0880549456924200e-03</internalNodes>
          <leafValues>
            5.5141307413578033e-02 -6.1372429132461548e-01</leafValues></_>
        <_>
          <internalNodes>
            0 -1 110 8.3816777914762497e-03</internalNodes>
          <leafValues>
            -1.1180389672517776e-01 3.5424813628196716e-01</leafValues></_></weakClassifiers></_>
    <!-- stage 11 -->
    <_>
      <maxWeakCount>32</maxWeakCount>
      <stageThreshold>-8.4636735916137695e-01</stageThreshold>
      <weakClassifiers>
        <_>
          <internalNodes>
            0 -1 445 -3.6035604774951935e-02</internalNodes>
          <leafValues>
            6.2064343690872192e-01 -2.1523179486393929e-02</leafValues></_>
        <_>
          <internalNodes>
            0 -1 87 5.5439393967390060e-02</internalNodes>
          <leafValues>
            -1.9886800646781921e-01 3.0757060647010803e-01</leafValues></_>
        <_>
          <internalNodes>
            0 -1 159 2.5359783321619034e-02</internalNodes>
          <leafValues>
            -2.5464436411857605e-01 2.4750033020973206e-01</leafValues></_>
        <_>
          <internalNodes>
            0 -1 456 7.5327726081013680e-03</internalNodes>
          <leafValues>
            8.1017047166824341e-02 -7.0483571290969849e-01</leafValues></_>
        <_>
          <internalNodes>
            0 -1 485 3.7559688091278076e-02</internalNodes>
          <leafValues>
            -2.3841446638107300e-01 2.0854870975017548e-01</leafValues></_>
        <_>
          <internalNodes>
            0 -1 182 -1.4645790215581656e-03</internalNodes>
          <leafValues>
            -4.8451200127601624e-01 1.0556464642286301e-01</leafValues></_>
        <_>
          <internalNodes>
            0 -1 431 5.2667662501335144e-02</internalNodes>
          <leafValues>
            -1.3893607258796692e-01 5.5298751592636108e-01</leafValues></_>
        <_>
          <internalNodes>
            0 -1 441 5.5112028494477272e-03</internalNodes>
          <leafValues>
            1.1279164254665375e-01 -6.6378146409988403e-01</leafValues></_>
        <_>
          <internalNodes>
            0 -1 147 6.8172491155564785e-03</internalNodes>
          <leafValues>
            -1.3905107975006104e-01 3.4383723139762878e-01</leafValues></_>
        <_>
          <internalNodes>
            0 -1 248 6.2273561954498291e-02</internalNodes>
          <leafValues>
            -1.0668510198593140e-01 4.8834639787673950e-01</leafValues></_>
        <_>
          <internalNodes>
            0 -1 199 2.3809187114238739e-02</internalNodes>
          <leafValues>
            -1.5088821947574615e-01 4.2928653955459595e-01</leafValues></_>
        <_>
          <internalNodes>
            0 -1 164 1.6443034633994102e-02</internalNodes>
          <leafValues>
            -1.9515338540077209e-01 2.6735770702362061e-01</leafValues></_>
        <_>
          <internalNodes>
            0 -1 422 8.6149036884307861e-02</internalNodes>
          <leafValues>
            5.9606634080410004e-02 -7.4188590049743652e-01</leafValues></_>
        <_>
          <internalNodes>
            0 -1 489 -2.4195432662963867e-02</internalNodes>
          <leafValues>
            -5.6750929355621338e-01 6.5269052982330322e-02</leafValues></_>
        <_>
          <internalNodes>
            0 -1 414 2.1166307851672173e-03</internalNodes>
          <leafValues>
            5.8458764106035233e-02 -7.0228159427642822e-01</leafValues></_>
        <_>
          <internalNodes>
            0 -1 397 -6.3305320218205452e-03</internalNodes>
          <leafValues>
            2.4676813185214996e-01 -1.8359923362731934e-01</leafValues></_>
        <_>
          <internalNodes>
            0 -1 311 -6.8024575710296631e-02</internalNodes>
          <leafValues>
            -6.4639520645141602e-01 7.2296179831027985e-02</leafValues></_>
        <_>
          <internalNodes>
            0 -1 537 1.5508010983467102e-02</internalNodes>
          <leafValues>
            -1.5611830353736877e-01 2.9188105463981628e-01</leafValues></_>
        <_>
          <internalNodes>
            0 -1 37 5.8276178315281868e-03</internalNodes>
          <leafValues>
            6.1362829059362411e-02 -6.9314754009246826e-01</leafValues></_>
        <_>
          <internalNodes>
            0 -1 527 -1.8066238611936569e-02</internalNodes>
          <leafValues>
            5.2374237775802612e-01 -9.1265887022018433e-02</leafValues></_>
        <_>
          <internalNodes>
            0 -1 132 -7.1244955062866211e-02</internalNodes>
          <leafValues>
            3.6647304892539978e-01 -1.1342278122901917e-01</leafValues></_>
        <_>
          <internalNodes>
            0 -1 380 5.5791866034269333e-03</internalNodes>
          <leafValues>
            5.9315204620361328e-02 -8.2901251316070557e-01</leafValues></_>
        <_>
          <internalNodes>
            0 -1 379 -4.6529681421816349e-03</internalNodes>
          <leafValues>
            -6.7207366228103638e-01 5.3951106965541840e-02</leafValues></_>
        <_>
          <internalNodes>
            0 -1 62 2.8793657198548317e-02</internalNodes>
          <leafValues>
            5.4085791110992432e-02 -7.1645426750183105e-01</leafValues></_>
        <_>
          <internalNodes>
            0 -1 193 2.2479787468910217e-02</internalNodes>
          <leafValues>
            -9.5166258513927460e-02 4.8350232839584351e-01</leafValues></_>
        <_>
          <internalNodes>
            0 -1 75 -9.4472579658031464e-03</internalNodes>
          <leafValues>
            -5.9672337770462036e-01 7.1902513504028320e-02</leafValues></_>
        <_>
          <internalNodes>
            0 -1 226 8.3269532769918442e-03</internalNodes>
          <leafValues>
            4.0258239954710007e-02 -8.6302679777145386e-01</leafValues></_>
        <_>
          <internalNodes>
            0 -1 16 3.0589684844017029e-02</internalNodes>
          <leafValues>
            -1.0774502158164978e-01 3.9697062969207764e-01</leafValues></_>
        <_>
          <internalNodes>
            0 -1 99 -4.0787145495414734e-02</internalNodes>
          <leafValues>
            4.9200645089149475e-01 -7.4111163616180420e-02</leafValues></_>
        <_>
          <internalNodes>
            0 -1 79 -1.2183409184217453e-02</internalNodes>
          <leafValues>
            3.6431959271430969e-01 -1.0786668956279755e-01</leafValues></_>
        <_>
          <internalNodes>
            0 -1 86 -3.3509492874145508e-02</internalNodes>
          <leafValues>
            5.0894349813461304e-01 -7.3773600161075592e-02</leafValues></_>
        <_>
          <internalNodes>
            0 -1 562 -1.2460350990295410e-02</internalNodes>
          <leafValues>
            4.4466575980186462e-01 -7.4369192123413086e-02</leafValues></_></weakClassifiers></_>
    <!-- stage 12 -->
    <_>
      <maxWeakCount>41</maxWeakCount>
      <stageThreshold>-8.1579583883285522e-01</stageThreshold>
      <weakClassifiers>
        <_>
          <internalNodes>
            0 -1 23 5.7980492711067200e-02</internalNodes>
          <leafValues>
            7.8512400388717651e-02 6.2980771064758301e-01</leafValues></_>
        <_>
          <internalNodes>
            0 -1 481 -6.3399616919923574e-05</internalNodes>
          <leafValues>
            2.3676586151123047e-01 -2.6556250452995300e-01</leafValues></_>
        <_>
          <internalNodes>
            0 -1 131 2.5511531159281731e-02</internalNodes>
          <leafValues>
            -2.7150121331214905e-01 2.1274907886981964e-01</leafValues></_>
        <_>
          <internalNodes>
            0 -1 351 4.2842607945203781e-03</internalNodes>
          <leafValues>
            7.9835072159767151e-02 -5.9698319435119629e-01</leafValues></_>
        <_>
          <internalNodes>
            0 -1 149 -3.7377334665507078e-03</internalNodes>
          <leafValues>
            2.9287523031234741e-01 -1.6199895739555359e-01</leafValues></_>
        <_>
          <internalNodes>
            0 -1 348 -4.4752741232514381e-03</internalNodes>
          <leafValues>
            -7.4923986196517944e-01 3.7120662629604340e-02</leafValues></_>
        <_>
          <internalNodes>
            0 -1 354 -3.1545343808829784e-03</internalNodes>
          <leafValues>
            -6.4272403717041016e-01 5.9794005006551743e-02</leafValues></_>
        <_>
          <internalNodes>
            0 -1 495 -1.4428639784455299e-02</internalNodes>
          <leafValues>
            3.7566894292831421e-01 -1.2258769571781158e-01</leafValues></_>
        <_>
          <internalNodes>
            0 -1 233 -6.1216086149215698e-02</internalNodes>
          <leafValues>
            4.2887005209922791e-01 -1.1694525182247162e-01</leafValues></_>
        <_>
          <internalNodes>
            0 -1 271 6.3353970646858215e-02</internalNodes>
          <leafValues>
            -1.8034881353378296e-01 3.1389343738555908e-01</leafValues></_>
        <_>
          <internalNodes>
            0 -1 528 2.9486441053450108e-03</internalNodes>
          <leafValues>
            -1.4670650660991669e-01 3.0597785115242004e-01</leafValues></_>
        <_>
          <internalNodes>
            0 -1 466 5.9207268059253693e-03</internalNodes>
          <leafValues>
            -1.4006346464157104e-01 3.0567085742950439e-01</leafValues></_>
        <_>
          <internalNodes>
            0 -1 317 7.0170266553759575e-03</internalNodes>
          <leafValues>
            8.2360222935676575e-02 -6.2882089614868164e-01</leafValues></_>
        <_>
          <internalNodes>
            0 -1 373 2.5270427577197552e-03</internalNodes>
          <leafValues>
            -1.4484784007072449e-01 3.0226334929466248e-01</leafValues></_>
        <_>
          <internalNodes>
            0 -1 341 -7.4776969850063324e-03</internalNodes>
          <leafValues>
            3.2605242729187012e-01 -1.2205079197883606e-01</leafValues></_>
        <_>
          <internalNodes>
            0 -1 395 1.1537229642271996e-02</internalNodes>
          <leafValues>
            9.3340747058391571e-02 -4.6606725454330444e-01</leafValues></_>
        <_>
          <internalNodes>
            0 -1 515 -2.7828775346279144e-02</internalNodes>
          <leafValues>
            3.6588802933692932e-01 -1.3312746584415436e-01</leafValues></_>
        <_>
          <internalNodes>
            0 -1 429 4.3591409921646118e-03</internalNodes>
          <leafValues>
            6.6707842051982880e-02 -6.8970626592636108e-01</leafValues></_>
        <_>
          <internalNodes>
            0 -1 472 5.6721838191151619e-03</internalNodes>
          <leafValues>
            -1.1827721446752548e-01 3.5640627145767212e-01</leafValues></_>
        <_>
          <internalNodes>
            0 -1 18 3.2267695665359497e-01</internalNodes>
          <leafValues>
            -1.5754623711109161e-01 3.2099333405494690e-01</leafValues></_>
        <_>
          <internalNodes>
            0 -1 428 1.9565941765904427e-03</internalNodes>
          <leafValues>
            -1.5296740829944611e-01 2.7644538879394531e-01</leafValues></_>
        <_>
          <internalNodes>
            0 -1 261 -1.8570357561111450e-01</internalNodes>
          <leafValues>
            -8.1647145748138428e-01 5.3387317806482315e-02</leafValues></_>
        <_>
          <internalNodes>
            0 -1 381 -3.4492483828216791e-03</internalNodes>
          <leafValues>
            -6.5797013044357300e-01 4.7084912657737732e-02</leafValues></_>
        <_>
          <internalNodes>
            0 -1 553 4.2722420766949654e-03</internalNodes>
          <leafValues>
            -1.1342741549015045e-01 3.7600371241569519e-01</leafValues></_>
        <_>
          <internalNodes>
            0 -1 556 -2.0400744397193193e-03</internalNodes>
          <leafValues>
            3.0527406930923462e-01 -1.4726501703262329e-01</leafValues></_>
        <_>
          <internalNodes>
            0 -1 231 -6.6165155731141567e-03</internalNodes>
          <leafValues>
            -6.4222627878189087e-01 5.8886043727397919e-02</leafValues></_>
        <_>
          <internalNodes>
            0 -1 239 1.1193568352609873e-03</internalNodes>
          <leafValues>
            9.6498496830463409e-02 -4.2256677150726318e-01</leafValues></_>
        <_>
          <internalNodes>
            0 -1 7 -6.2514040619134903e-03</internalNodes>
          <leafValues>
            3.1702890992164612e-01 -1.2687674164772034e-01</leafValues></_>
        <_>
          <internalNodes>
            0 -1 124 9.4220384955406189e-02</internalNodes>
          <leafValues>
            -7.7251024544239044e-02 4.8844650387763977e-01</leafValues></_>
        <_>
          <internalNodes>
            0 -1 14 1.2689042836427689e-02</internalNodes>
          <leafValues>
            -1.0837881267070770e-01 3.6435288190841675e-01</leafValues></_>
        <_>
          <internalNodes>
            0 -1 101 3.3820271492004395e-03</internalNodes>
          <leafValues>
            -1.0284268110990524e-01 3.6363008618354797e-01</leafValues></_>
        <_>
          <internalNodes>
            0 -1 50 5.2254412323236465e-02</internalNodes>
          <leafValues>
            -1.0889393091201782e-01 3.3532956242561340e-01</leafValues></_>
        <_>
          <internalNodes>
            0 -1 170 8.8208526372909546e-02</internalNodes>
          <leafValues>
            -1.1810732632875443e-01 3.2878768444061279e-01</leafValues></_>
        <_>
          <internalNodes>
            0 -1 558 -6.8860030733048916e-03</internalNodes>
          <leafValues>
            -5.8623200654983521e-01 7.3436386883258820e-02</leafValues></_>
        <_>
          <internalNodes>
            0 -1 352 1.7079039243981242e-03</internalNodes>
          <leafValues>
            4.8828609287738800e-02 -6.1827296018600464e-01</leafValues></_>
        <_>
          <internalNodes>
            0 -1 175 -4.0531095117330551e-02</internalNodes>
          <leafValues>
            -6.1027187108993530e-01 5.2815493196249008e-02</leafValues></_>
        <_>
          <internalNodes>
            0 -1 31 3.9464188739657402e-03</internalNodes>
          <leafValues>
            6.1602536588907242e-02 -5.0376081466674805e-01</leafValues></_>
        <_>
          <internalNodes>
            0 -1 183 6.1722010374069214e-02</internalNodes>
          <leafValues>
            3.7374090403318405e-02 -8.5249900817871094e-01</leafValues></_>
        <_>
          <internalNodes>
            0 -1 543 2.1706414408981800e-03</internalNodes>
          <leafValues>
            6.1380472034215927e-02 -4.9629673361778259e-01</leafValues></_>
        <_>
          <internalNodes>
            0 -1 403 2.4201893247663975e-03</internalNodes>
          <leafValues>
            -1.6266080737113953e-01 2.4064575135707855e-01</leafValues></_>
        <_>
          <internalNodes>
            0 -1 295 5.2849226631224155e-03</internalNodes>
          <leafValues>
            -1.2512090802192688e-01 2.9089891910552979e-01</leafValues></_></weakClassifiers></_>
    <!-- stage 13 -->
    <_>
      <maxWeakCount>22</maxWeakCount>
      <stageThreshold>-9.2119854688644409e-01</stageThreshold>
      <weakClassifiers>
        <_>
          <internalNodes>
            0 -1 416 -1.2156425509601831e-03</internalNodes>
          <leafValues>
            -2.8461539745330811e-01 4.8073393106460571e-01</leafValues></_>
        <_>
          <internalNodes>
            0 -1 58 -1.2271733582019806e-01</internalNodes>
          <leafValues>
            3.7987479567527771e-01 -2.6021093130111694e-01</leafValues></_>
        <_>
          <internalNodes>
            0 -1 155 1.1506385356187820e-01</internalNodes>
          <leafValues>
            -2.4227005243301392e-01 4.0058913826942444e-01</leafValues></_>
        <_>
          <internalNodes>
            0 -1 416 2.0178086124360561e-03</internalNodes>
          <leafValues>
            1.4678467810153961e-01 -5.6400662660598755e-01</leafValues></_>
        <_>
          <internalNodes>
            0 -1 520 -4.4477671384811401e-02</internalNodes>
          <leafValues>
            4.3773499131202698e-01 -1.6547617316246033e-01</leafValues></_>
        <_>
          <internalNodes>
            0 -1 2 -2.1187951788306236e-02</internalNodes>
          <leafValues>
            6.8574619293212891e-01 -1.0234854370355606e-01</leafValues></_>
        <_>
          <internalNodes>
            0 -1 21 4.7282040119171143e-02</internalNodes>
          <leafValues>
            -2.2023040056228638e-01 3.6481174826622009e-01</leafValues></_>
        <_>
          <internalNodes>
            0 -1 433 7.9412455670535564e-04</internalNodes>
          <leafValues>
            1.4957609772682190e-01 -4.5610442757606506e-01</leafValues></_>
        <_>
          <internalNodes>
            0 -1 187 4.0043517947196960e-03</internalNodes>
          <leafValues>
            1.1169158667325974e-01 -5.2791661024093628e-01</leafValues></_>
        <_>
          <internalNodes>
            0 -1 322 1.8714410252869129e-03</internalNodes>
          <leafValues>
            1.3207799196243286e-01 -4.6157011389732361e-01</leafValues></_>
        <_>
          <internalNodes>
            0 -1 321 -1.1874125339090824e-03</internalNodes>
          <leafValues>
            -4.1546064615249634e-01 1.4555552601814270e-01</leafValues></_>
        <_>
          <internalNodes>
            0 -1 427 -6.2894891016185284e-03</internalNodes>
          <leafValues>
            -6.9527196884155273e-01 8.2363389432430267e-02</leafValues></_>
        <_>
          <internalNodes>
            0 -1 259 3.4054841846227646e-02</internalNodes>
          <leafValues>
            7.6082818210124969e-02 -6.4393597841262817e-01</leafValues></_>
        <_>
          <internalNodes>
            0 -1 256 -2.2090403363108635e-02</internalNodes>
          <leafValues>
            -4.4779899716377258e-01 1.2309870123863220e-01</leafValues></_>
        <_>
          <internalNodes>
            0 -1 251 1.8336024880409241e-01</internalNodes>
          <leafValues>
            5.1074355840682983e-02 -7.6365303993225098e-01</leafValues></_>
        <_>
          <internalNodes>
            0 -1 314 3.5342350602149963e-02</internalNodes>
          <leafValues>
            8.2565687596797943e-02 -5.9816157817840576e-01</leafValues></_>
        <_>
          <internalNodes>
            0 -1 563 -1.3859664089977741e-02</internalNodes>
          <leafValues>
            5.0574523210525513e-01 -1.0213085263967514e-01</leafValues></_>
        <_>
          <internalNodes>
            0 -1 536 3.7192250601947308e-03</internalNodes>
          <leafValues>
            1.1681471765041351e-01 -4.4622960686683655e-01</leafValues></_>
        <_>
          <internalNodes>
            0 -1 522 -5.9654088690876961e-03</internalNodes>
          <leafValues>
            -5.6527572870254517e-01 9.9888890981674194e-02</leafValues></_>
        <_>
          <internalNodes>
            0 -1 112 -5.5744610726833344e-03</internalNodes>
          <leafValues>
            3.4551122784614563e-01 -1.7177653312683105e-01</leafValues></_>
        <_>
          <internalNodes>
            0 -1 382 1.4801591169089079e-03</internalNodes>
          <leafValues>
            1.0970940440893173e-01 -5.0690138339996338e-01</leafValues></_>
        <_>
          <internalNodes>
            0 -1 388 -1.0965621331706643e-03</internalNodes>
          <leafValues>
            2.5355395674705505e-01 -1.9568492472171783e-01</leafValues></_></weakClassifiers></_>
    <!-- stage 14 -->
    <_>
      <maxWeakCount>38</maxWeakCount>
      <stageThreshold>-9.2486399412155151e-01</stageThreshold>
      <weakClassifiers>
        <_>
          <internalNodes>
            0 -1 282 -1.3951693661510944e-02</internalNodes>
          <leafValues>
            5.2962082624435425e-01 5.9288535267114639e-03</leafValues></_>
        <_>
          <internalNodes>
            0 -1 415 -6.1339277774095535e-02</internalNodes>
          <leafValues>
            2.2930598258972168e-01 -3.1266635656356812e-01</leafValues></_>
        <_>
          <internalNodes>
            0 -1 487 1.1729538440704346e-02</internalNodes>
          <leafValues>
            -3.0864879488945007e-01 1.7226494848728180e-01</leafValues></_>
        <_>
          <internalNodes>
            0 -1 266 2.2198769729584455e-03</internalNodes>
          <leafValues>
            9.2573821544647217e-02 -4.9767264723777771e-01</leafValues></_>
        <_>
          <internalNodes>
            0 -1 262 -2.9328800737857819e-03</internalNodes>
          <leafValues>
            -4.4231602549552917e-01 1.0546967387199402e-01</leafValues></_>
        <_>
          <internalNodes>
            0 -1 171 2.7731208130717278e-02</internalNodes>
          <leafValues>
            6.0680143535137177e-02 -6.3370931148529053e-01</leafValues></_>
        <_>
          <internalNodes>
            0 -1 294 6.4292494207620621e-03</internalNodes>
          <leafValues>
            9.9694661796092987e-02 -4.6422615647315979e-01</leafValues></_>
        <_>
          <internalNodes>
            0 -1 548 -1.5994204208254814e-02</internalNodes>
          <leafValues>
            4.3513092398643494e-01 -1.0795594751834869e-01</leafValues></_>
        <_>
          <internalNodes>
            0 -1 566 3.1278654932975769e-03</internalNodes>
          <leafValues>
            5.8274835348129272e-02 -5.3463673591613770e-01</leafValues></_>
        <_>
          <internalNodes>
            0 -1 44 -6.3447430729866028e-03</internalNodes>
          <leafValues>
            5.2520656585693359e-01 -8.2981988787651062e-02</leafValues></_>
        <_>
          <internalNodes>
            0 -1 45 4.3982844799757004e-03</internalNodes>
          <leafValues>
            -1.2585191428661346e-01 3.7516653537750244e-01</leafValues></_>
        <_>
          <internalNodes>
            0 -1 152 1.2516929209232330e-01</internalNodes>
          <leafValues>
            -1.0403712838888168e-01 3.8379490375518799e-01</leafValues></_>
        <_>
          <internalNodes>
            0 -1 196 -7.1904331445693970e-02</internalNodes>
          <leafValues>
            3.5471662878990173e-01 -1.4608828723430634e-01</leafValues></_>
        <_>
          <internalNodes>
            0 -1 285 7.5526710133999586e-04</internalNodes>
          <leafValues>
            1.2689201533794403e-01 -3.6506536602973938e-01</leafValues></_>
        <_>
          <internalNodes>
            0 -1 550 1.7907688394188881e-02</internalNodes>
          <leafValues>
            -1.1323187500238419e-01 4.6043136715888977e-01</leafValues></_>
        <_>
          <internalNodes>
            0 -1 74 4.1446840623393655e-04</internalNodes>
          <leafValues>
            1.6902336478233337e-01 -2.4106034636497498e-01</leafValues></_>
        <_>
          <internalNodes>
            0 -1 77 5.7976751122623682e-04</internalNodes>
          <leafValues>
            1.1409719288349152e-01 -3.3392232656478882e-01</leafValues></_>
        <_>
          <internalNodes>
            0 -1 341 1.0454186238348484e-02</internalNodes>
          <leafValues>
            -8.2574084401130676e-02 5.5690443515777588e-01</leafValues></_>
        <_>
          <internalNodes>
            0 -1 426 1.7820462817326188e-03</internalNodes>
          <leafValues>
            -1.0680288076400757e-01 4.1218349337577820e-01</leafValues></_>
        <_>
          <internalNodes>
            0 -1 340 6.2377322465181351e-03</internalNodes>
          <leafValues>
            -1.3031952083110809e-01 3.2364183664321899e-01</leafValues></_>
        <_>
          <internalNodes>
            0 -1 185 1.0396672878414392e-03</internalNodes>
          <leafValues>
            7.8498624265193939e-02 -5.4190915822982788e-01</leafValues></_>
        <_>
          <internalNodes>
            0 -1 119 1.5084812417626381e-02</internalNodes>
          <leafValues>
            -1.4018370211124420e-01 3.2782861590385437e-01</leafValues></_>
        <_>
          <internalNodes>
            0 -1 412 -1.5937290154397488e-03</internalNodes>
          <leafValues>
            -3.8150712847709656e-01 1.0415706783533096e-01</leafValues></_>
        <_>
          <internalNodes>
            0 -1 163 1.1641401052474976e-01</internalNodes>
          <leafValues>
            4.7394473105669022e-02 -7.5926285982131958e-01</leafValues></_>
        <_>
          <internalNodes>
            0 -1 369 8.7037254124879837e-03</internalNodes>
          <leafValues>
            -1.4489486813545227e-01 2.7765619754791260e-01</leafValues></_>
        <_>
          <internalNodes>
            0 -1 64 -4.2238909751176834e-02</internalNodes>
          <leafValues>
            -5.3952276706695557e-01 8.4843918681144714e-02</leafValues></_>
        <_>
          <internalNodes>
            0 -1 377 5.6322254240512848e-03</internalNodes>
          <leafValues>
            -9.3720369040966034e-02 4.4715523719787598e-01</leafValues></_>
        <_>
          <internalNodes>
            0 -1 401 2.5397129356861115e-03</internalNodes>
          <leafValues>
            -1.1289153248071671e-01 3.4113502502441406e-01</leafValues></_>
        <_>
          <internalNodes>
            0 -1 137 -2.4440390989184380e-03</internalNodes>
          <leafValues>
            -4.5546707510948181e-01 8.7136954069137573e-02</leafValues></_>
        <_>
          <internalNodes>
            0 -1 350 -6.6294851712882519e-03</internalNodes>
          <leafValues>
            2.7914473414421082e-01 -1.5152716636657715e-01</leafValues></_>
        <_>
          <internalNodes>
            0 -1 568 1.2741866521537304e-03</internalNodes>
          <leafValues>
            8.4188498556613922e-02 -4.7534215450286865e-01</leafValues></_>
        <_>
          <internalNodes>
            0 -1 286 -1.7157352995127439e-03</internalNodes>
          <leafValues>
            -3.9879199862480164e-01 9.0678304433822632e-02</leafValues></_>
        <_>
          <internalNodes>
            0 -1 398 6.3861217349767685e-03</internalNodes>
          <leafValues>
            5.2741419523954391e-02 -6.5076422691345215e-01</leafValues></_>
        <_>
          <internalNodes>
            0 -1 215 -8.0682553350925446e-02</internalNodes>
          <leafValues>
            -6.7387384176254272e-01 4.9313686788082123e-02</leafValues></_>
        <_>
          <internalNodes>
            0 -1 336 -1.1494696140289307e-02</internalNodes>
          <leafValues>
            3.4935715794563293e-01 -1.2251242995262146e-01</leafValues></_>
        <_>
          <internalNodes>
            0 -1 455 -1.7298194579780102e-03</internalNodes>
          <leafValues>
            -4.1678032279014587e-01 1.0171104967594147e-01</leafValues></_>
        <_>
          <internalNodes>
            0 -1 335 1.6376290470361710e-02</internalNodes>
          <leafValues>
            -1.2154406309127808e-01 3.5456570982933044e-01</leafValues></_>
        <_>
          <internalNodes>
            0 -1 134 1.5196877717971802e-01</internalNodes>
          <leafValues>
            5.5053394287824631e-02 -8.4911221265792847e-01</leafValues></_></weakClassifiers></_>
    <!-- stage 15 -->
    <_>
      <maxWeakCount>36</maxWeakCount>
      <stageThreshold>-7.8627455234527588e-01</stageThreshold>
      <weakClassifiers>
        <_>
          <internalNodes>
            0 -1 198 3.8041728548705578e-03</internalNodes>
          <leafValues>
            -3.2332561910152435e-02 5.0599783658981323e-01</leafValues></_>
        <_>
          <internalNodes>
            0 -1 168 2.4151718243956566e-02</internalNodes>
          <leafValues>
            -2.0780210196971893e-01 3.1840342283248901e-01</leafValues></_>
        <_>
          <internalNodes>
            0 -1 91 1.1407637968659401e-02</internalNodes>
          <leafValues>
            -2.2370089590549469e-01 3.1518498063087463e-01</leafValues></_>
        <_>
          <internalNodes>
            0 -1 366 -5.6662093847990036e-03</internalNodes>
          <leafValues>
            3.8274338841438293e-01 -1.5344406664371490e-01</leafValues></_>
        <_>
          <internalNodes>
            0 -1 306 -7.3496559634804726e-03</internalNodes>
          <leafValues>
            3.6157113313674927e-01 -2.0099213719367981e-01</leafValues></_>
        <_>
          <internalNodes>
            0 -1 517 -2.5049054529517889e-03</internalNodes>
          <leafValues>
            2.0107413828372955e-01 -2.7973502874374390e-01</leafValues></_>
        <_>
          <internalNodes>
            0 -1 424 -2.7922447770833969e-03</internalNodes>
          <leafValues>
            3.1674492359161377e-01 -1.6756957769393921e-01</leafValues></_>
        <_>
          <internalNodes>
            0 -1 76 -1.4464592561125755e-02</internalNodes>
          <leafValues>
            3.0173164606094360e-01 -1.6081108152866364e-01</leafValues></_>
        <_>
          <internalNodes>
            0 -1 148 1.7308067530393600e-02</internalNodes>
          <leafValues>
            -1.0680750012397766e-01 4.8825463652610779e-01</leafValues></_>
        <_>
          <internalNodes>
            0 -1 150 -4.8469710163772106e-03</internalNodes>
          <leafValues>
            3.1474718451499939e-01 -1.4939795434474945e-01</leafValues></_>
        <_>
          <internalNodes>
            0 -1 331 -7.8713335096836090e-03</internalNodes>
          <leafValues>
            3.2809501886367798e-01 -1.2648370862007141e-01</leafValues></_>
        <_>
          <internalNodes>
            0 -1 291 2.4342961609363556e-02</internalNodes>
          <leafValues>
            -1.0643779486417770e-01 4.7531288862228394e-01</leafValues></_>
        <_>
          <internalNodes>
            0 -1 310 8.1724245101213455e-03</internalNodes>
          <leafValues>
            -1.3355557620525360e-01 3.1550225615501404e-01</leafValues></_>
        <_>
          <internalNodes>
            0 -1 559 -4.7401855699717999e-03</internalNodes>
          <leafValues>
            6.7445111274719238e-01 -5.6220438331365585e-02</leafValues></_>
        <_>
          <internalNodes>
            0 -1 519 -9.0443138033151627e-03</internalNodes>
          <leafValues>
            2.9741477966308594e-01 -1.3610677421092987e-01</leafValues></_>
        <_>
          <internalNodes>
            0 -1 115 2.0963352173566818e-02</internalNodes>
          <leafValues>
            -6.4981989562511444e-02 6.6106820106506348e-01</leafValues></_>
        <_>
          <internalNodes>
            0 -1 410 -3.4426901489496231e-02</internalNodes>
          <leafValues>
            4.8698595166206360e-01 -7.5295716524124146e-02</leafValues></_>
        <_>
          <internalNodes>
            0 -1 545 1.2356485240161419e-02</internalNodes>
          <leafValues>
            -9.7440458834171295e-02 4.5412421226501465e-01</leafValues></_>
        <_>
          <internalNodes>
            0 -1 211 -5.1485601812601089e-02</internalNodes>
          <leafValues>
            -4.6608969569206238e-01 8.4311217069625854e-02</leafValues></_>
        <_>
          <internalNodes>
            0 -1 297 -4.6225879341363907e-03</internalNodes>
          <leafValues>
            3.2482028007507324e-01 -1.4011847972869873e-01</leafValues></_>
        <_>
          <internalNodes>
            0 -1 493 1.7388626933097839e-02</internalNodes>
          <leafValues>
            5.7003520429134369e-02 -7.1733766794204712e-01</leafValues></_>
        <_>
          <internalNodes>
            0 -1 28 -6.6318558529019356e-03</internalNodes>
          <leafValues>
            -6.6059678792953491e-01 4.7661460936069489e-02</leafValues></_>
        <_>
          <internalNodes>
            0 -1 419 -1.8744967877864838e-02</internalNodes>
          <leafValues>
            6.1379307508468628e-01 -6.6165611147880554e-02</leafValues></_>
        <_>
          <internalNodes>
            0 -1 328 -1.2302894145250320e-02</internalNodes>
          <leafValues>
            3.5248667001724243e-01 -1.0776822268962860e-01</leafValues></_>
        <_>
          <internalNodes>
            0 -1 408 -1.9113454036414623e-03</internalNodes>
          <leafValues>
            2.5768795609474182e-01 -1.6259436309337616e-01</leafValues></_>
        <_>
          <internalNodes>
            0 -1 117 2.0300392061471939e-02</internalNodes>
          <leafValues>
            -1.2553492188453674e-01 3.0857488512992859e-01</leafValues></_>
        <_>
          <internalNodes>
            0 -1 367 7.0296619087457657e-03</internalNodes>
          <leafValues>
            -1.3626517355442047e-01 3.0935370922088623e-01</leafValues></_>
        <_>
          <internalNodes>
            0 -1 365 4.7632772475481033e-03</internalNodes>
          <leafValues>
            -1.6900832951068878e-01 3.4369227290153503e-01</leafValues></_>
        <_>
          <internalNodes>
            0 -1 275 3.1026788055896759e-02</internalNodes>
          <leafValues>
            -1.2203367054462433e-01 3.2875818014144897e-01</leafValues></_>
        <_>
          <internalNodes>
            0 -1 423 -9.9168927408754826e-04</internalNodes>
          <leafValues>
            2.6480996608734131e-01 -1.4166080951690674e-01</leafValues></_>
        <_>
          <internalNodes>
            0 -1 5 1.3110442087054253e-02</internalNodes>
          <leafValues>
            -1.1578591167926788e-01 3.3434370160102844e-01</leafValues></_>
        <_>
          <internalNodes>
            0 -1 8 -2.0103361457586288e-02</internalNodes>
          <leafValues>
            3.5703527927398682e-01 -1.2220059335231781e-01</leafValues></_>
        <_>
          <internalNodes>
            0 -1 194 -2.2955682128667831e-02</internalNodes>
          <leafValues>
            -7.4801611900329590e-01 6.2054444104433060e-02</leafValues></_>
        <_>
          <internalNodes>
            0 -1 538 9.5746982842683792e-03</internalNodes>
          <leafValues>
            4.1177853941917419e-02 -7.9068529605865479e-01</leafValues></_>
        <_>
          <internalNodes>
            0 -1 386 1.2693176977336407e-03</internalNodes>
          <leafValues>
            6.3733913004398346e-02 -5.1525461673736572e-01</leafValues></_>
        <_>
          <internalNodes>
            0 -1 202 9.1168433427810669e-02</internalNodes>
          <leafValues>
            -8.5250072181224823e-02 4.3782231211662292e-01</leafValues></_></weakClassifiers></_>
    <!-- stage 16 -->
    <_>
      <maxWeakCount>46</maxWeakCount>
      <stageThreshold>-8.5114401578903198e-01</stageThreshold>
      <weakClassifiers>
        <_>
          <internalNodes>
            0 -1 88 2.0612949132919312e-01</internalNodes>
          <leafValues>
            1.8854166567325592e-01 6.8974357843399048e-01</leafValues></_>
        <_>
          <internalNodes>
            0 -1 195 1.7070401459932327e-02</internalNodes>
          <leafValues>
            -2.5700095295906067e-01 2.0418626070022583e-01</leafValues></_>
        <_>
          <internalNodes>
            0 -1 362 1.9683968275785446e-02</internalNodes>
          <leafValues>
            1.0848357528448105e-01 -4.7335407137870789e-01</leafValues></_>
        <_>
          <internalNodes>
            0 -1 80 3.5548746585845947e-02</internalNodes>
          <leafValues>
            -1.6982389986515045e-01 2.7490702271461487e-01</leafValues></_>
        <_>
          <internalNodes>
            0 -1 387 1.9695065915584564e-02</internalNodes>
          <leafValues>
            -1.9284890592098236e-01 2.5054353475570679e-01</leafValues></_>
        <_>
          <internalNodes>
            0 -1 270 -3.4072190523147583e-02</internalNodes>
          <leafValues>
            3.4523010253906250e-01 -1.2736882269382477e-01</leafValues></_>
        <_>
          <internalNodes>
            0 -1 56 1.2333411723375320e-01</internalNodes>
          <leafValues>
            8.4937758743762970e-02 -5.4220056533813477e-01</leafValues></_>
        <_>
          <internalNodes>
            0 -1 105 -1.9867241382598877e-02</internalNodes>
          <leafValues>
            3.7407591938972473e-01 -1.1744520813226700e-01</leafValues></_>
        <_>
          <internalNodes>
            0 -1 13 1.4947470277547836e-02</internalNodes>
          <leafValues>
            -8.2710653543472290e-02 4.5918905735015869e-01</leafValues></_>
        <_>
          <internalNodes>
            0 -1 320 2.8327829204499722e-03</internalNodes>
          <leafValues>
            7.1599565446376801e-02 -5.9637528657913208e-01</leafValues></_>
        <_>
          <internalNodes>
            0 -1 46 -1.2740504927933216e-02</internalNodes>
          <leafValues>
            3.5003143548965454e-01 -1.0859390348196030e-01</leafValues></_>
        <_>
          <internalNodes>
            0 -1 432 2.1330360323190689e-03</internalNodes>
          <leafValues>
            -1.8837232887744904e-01 1.9626088440418243e-01</leafValues></_>
        <_>
          <internalNodes>
            0 -1 345 5.4735541343688965e-03</internalNodes>
          <leafValues>
            6.2947683036327362e-02 -5.8168697357177734e-01</leafValues></_>
        <_>
          <internalNodes>
            0 -1 172 -4.5029774308204651e-02</internalNodes>
          <leafValues>
            -6.7615616321563721e-01 4.9845460802316666e-02</leafValues></_>
        <_>
          <internalNodes>
            0 -1 206 -7.1275964379310608e-02</internalNodes>
          <leafValues>
            -5.5481463670730591e-01 5.9750068932771683e-02</leafValues></_>
        <_>
          <internalNodes>
            0 -1 146 5.0334921106696129e-03</internalNodes>
          <leafValues>
            -7.7213265001773834e-02 4.5940008759498596e-01</leafValues></_>
        <_>
          <internalNodes>
            0 -1 197 -6.5068337135016918e-03</internalNodes>
          <leafValues>
            -8.4577876329421997e-01 4.0583036839962006e-02</leafValues></_>
        <_>
          <internalNodes>
            0 -1 534 -3.4765481948852539e-02</internalNodes>
          <leafValues>
            2.9032436013221741e-01 -1.1827103793621063e-01</leafValues></_>
        <_>
          <internalNodes>
            0 -1 561 1.2993831187486649e-02</internalNodes>
          <leafValues>
            -7.8086391091346741e-02 5.1692742109298706e-01</leafValues></_>
        <_>
          <internalNodes>
            0 -1 554 5.0769108347594738e-03</internalNodes>
          <leafValues>
            -9.1793425381183624e-02 3.4704208374023438e-01</leafValues></_>
        <_>
          <internalNodes>
            0 -1 464 -4.5707714889431372e-05</internalNodes>
          <leafValues>
            1.6115185618400574e-01 -2.2278419137001038e-01</leafValues></_>
        <_>
          <internalNodes>
            0 -1 142 -7.7855199575424194e-02</internalNodes>
          <leafValues>
            -6.3334935903549194e-01 4.6107947826385498e-02</leafValues></_>
        <_>
          <internalNodes>
            0 -1 396 3.4454446285963058e-03</internalNodes>
          <leafValues>
            -1.4167833328247070e-01 2.8131672739982605e-01</leafValues></_>
        <_>
          <internalNodes>
            0 -1 343 -8.9187398552894592e-03</internalNodes>
          <leafValues>
            5.1130747795104980e-01 -6.7366212606430054e-02</leafValues></_>
        <_>
          <internalNodes>
            0 -1 313 2.0886585116386414e-03</internalNodes>
          <leafValues>
            -1.3807347416877747e-01 2.4120697379112244e-01</leafValues></_>
        <_>
          <internalNodes>
            0 -1 446 1.8336122157052159e-03</internalNodes>
          <leafValues>
            9.0637445449829102e-02 -3.9269906282424927e-01</leafValues></_>
        <_>
          <internalNodes>
            0 -1 229 1.3683706521987915e-02</internalNodes>
          <leafValues>
            -9.5118366181850433e-02 3.5368204116821289e-01</leafValues></_>
        <_>
          <internalNodes>
            0 -1 514 -1.1969580315053463e-02</internalNodes>
          <leafValues>
            2.7122229337692261e-01 -1.1912079900503159e-01</leafValues></_>
        <_>
          <internalNodes>
            0 -1 404 3.4376685507595539e-03</internalNodes>
          <leafValues>
            5.1779028028249741e-02 -6.2055027484893799e-01</leafValues></_>
        <_>
          <internalNodes>
            0 -1 436 -1.1067446321249008e-03</internalNodes>
          <leafValues>
            -3.3355998992919922e-01 9.0448126196861267e-02</leafValues></_>
        <_>
          <internalNodes>
            0 -1 114 -3.6096833646297455e-03</internalNodes>
          <leafValues>
            3.0169689655303955e-01 -1.0705091059207916e-01</leafValues></_>
        <_>
          <internalNodes>
            0 -1 530 -7.4565215036273003e-03</internalNodes>
          <leafValues>
            7.2340160608291626e-01 -4.4791311025619507e-02</leafValues></_>
        <_>
          <internalNodes>
            0 -1 356 2.0369311794638634e-02</internalNodes>
          <leafValues>
            -1.6153818368911743e-01 1.8825228512287140e-01</leafValues></_>
        <_>
          <internalNodes>
            0 -1 241 7.0332355797290802e-02</internalNodes>
          <leafValues>
            -8.4693044424057007e-02 4.0519362688064575e-01</leafValues></_>
        <_>
          <internalNodes>
            0 -1 509 3.1909118406474590e-03</internalNodes>
          <leafValues>
            7.5115174055099487e-02 -4.8929452896118164e-01</leafValues></_>
        <_>
          <internalNodes>
            0 -1 540 -5.7675195857882500e-03</internalNodes>
          <leafValues>
            -5.5572909116744995e-01 5.3475644439458847e-02</leafValues></_>
        <_>
          <internalNodes>
            0 -1 393 3.7138154730200768e-03</internalNodes>
          <leafValues>
            -1.6168707609176636e-01 1.8795162439346313e-01</leafValues></_>
        <_>
          <internalNodes>
            0 -1 47 5.7067580521106720e-02</internalNodes>
          <leafValues>
            5.5003713816404343e-02 -5.6798404455184937e-01</leafValues></_>
        <_>
          <internalNodes>
            0 -1 392 3.2645738683640957e-03</internalNodes>
          <leafValues>
            -1.7207497358322144e-01 1.9945426285266876e-01</leafValues></_>
        <_>
          <internalNodes>
            0 -1 66 -1.0669937729835510e-01</internalNodes>
          <leafValues>
            -6.5739268064498901e-01 5.5289488285779953e-02</leafValues></_>
        <_>
          <internalNodes>
            0 -1 39 1.2302900850772858e-01</internalNodes>
          <leafValues>
            3.2088801264762878e-02 -8.4649693965911865e-01</leafValues></_>
        <_>
          <internalNodes>
            0 -1 35 1.2958908453583717e-02</internalNodes>
          <leafValues>
            -1.0944201797246933e-01 3.4185793995857239e-01</leafValues></_>
        <_>
          <internalNodes>
            0 -1 318 3.6096762865781784e-02</internalNodes>
          <leafValues>
            4.6159405261278152e-02 -7.6804071664810181e-01</leafValues></_>
        <_>
          <internalNodes>
            0 -1 53 7.5663719326257706e-03</internalNodes>
          <leafValues>
            -9.1893129050731659e-02 3.9113265275955200e-01</leafValues></_>
        <_>
          <internalNodes>
            0 -1 17 -8.4328856319189072e-03</internalNodes>
          <leafValues>
            -6.9943886995315552e-01 5.6180756539106369e-02</leafValues></_>
        <_>
          <internalNodes>
            0 -1 439 2.8196281194686890e-01</internalNodes>
          <leafValues>
            3.2958999276161194e-02 -7.7826422452926636e-01</leafValues></_></weakClassifiers></_>
    <!-- stage 17 -->
    <_>
      <maxWeakCount>45</maxWeakCount>
      <stageThreshold>-8.6994832754135132e-01</stageThreshold>
      <weakClassifiers>
        <_>
          <internalNodes>
            0 -1 462 -2.9406272806227207e-03</internalNodes>
          <leafValues>
            4.9143469333648682e-01 -2.1634615957736969e-02</leafValues></_>
        <_>
          <internalNodes>
            0 -1 135 2.6180543005466461e-02</internalNodes>
          <leafValues>
            -1.7736856639385223e-01 2.8322094678878784e-01</leafValues></_>
        <_>
          <internalNodes>
            0 -1 209 9.0338259935379028e-02</internalNodes>
          <leafValues>
            7.9956904053688049e-02 -6.7816025018692017e-01</leafValues></_>
        <_>
          <internalNodes>
            0 -1 3 7.7268797904253006e-03</internalNodes>
          <leafValues>
            -1.5081334114074707e-01 3.6263430118560791e-01</leafValues></_>
        <_>
          <internalNodes>
            0 -1 472 -9.7668627277016640e-03</internalNodes>
          <leafValues>
            2.7467805147171021e-01 -1.9404004514217377e-01</leafValues></_>
        <_>
          <internalNodes>
            0 -1 411 -6.7304018884897232e-03</internalNodes>
          <leafValues>
            3.3683612942695618e-01 -1.1877378821372986e-01</leafValues></_>
        <_>
          <internalNodes>
            0 -1 213 1.0673083364963531e-02</internalNodes>
          <leafValues>
            -1.3431660830974579e-01 3.4145924448966980e-01</leafValues></_>
        <_>
          <internalNodes>
            0 -1 307 9.6060857176780701e-03</internalNodes>
          <leafValues>
            -1.0475991666316986e-01 4.2912247776985168e-01</leafValues></_>
        <_>
          <internalNodes>
            0 -1 173 5.1202885806560516e-03</internalNodes>
          <leafValues>
            -2.1185356378555298e-01 2.2285263240337372e-01</leafValues></_>
        <_>
          <internalNodes>
            0 -1 129 1.7621386051177979e-01</internalNodes>
          <leafValues>
            6.2051881104707718e-02 -6.3397723436355591e-01</leafValues></_>
        <_>
          <internalNodes>
            0 -1 273 1.1898746015504003e-04</internalNodes>
          <leafValues>
            -2.2570909559726715e-01 1.6501790285110474e-01</leafValues></_>
        <_>
          <internalNodes>
            0 -1 347 3.7184958346188068e-03</internalNodes>
          <leafValues>
            -1.0319926589727402e-01 3.4570097923278809e-01</leafValues></_>
        <_>
          <internalNodes>
            0 -1 28 7.0613883435726166e-03</internalNodes>
          <leafValues>
            4.9223821610212326e-02 -6.7774057388305664e-01</leafValues></_>
        <_>
          <internalNodes>
            0 -1 330 2.6844549924135208e-02</internalNodes>
          <leafValues>
            -9.9819004535675049e-02 4.1536119580268860e-01</leafValues></_>
        <_>
          <internalNodes>
            0 -1 304 7.9540824517607689e-03</internalNodes>
          <leafValues>
            -1.8922102451324463e-01 2.2853052616119385e-01</leafValues></_>
        <_>
          <internalNodes>
            0 -1 521 1.3318593613803387e-02</internalNodes>
          <leafValues>
            5.2365504205226898e-02 -7.6237863302230835e-01</leafValues></_>
        <_>
          <internalNodes>
            0 -1 516 -1.0927947238087654e-02</internalNodes>
          <leafValues>
            3.6963519454002380e-01 -1.0843510180711746e-01</leafValues></_>
        <_>
          <internalNodes>
            0 -1 482 3.1511224806308746e-02</internalNodes>
          <leafValues>
            4.6593151986598969e-02 -8.2689100503921509e-01</leafValues></_>
        <_>
          <internalNodes>
            0 -1 184 1.0459790006279945e-02</internalNodes>
          <leafValues>
            -1.3137021660804749e-01 2.7475485205650330e-01</leafValues></_>
        <_>
          <internalNodes>
            0 -1 388 -3.0513161327689886e-03</internalNodes>
          <leafValues>
            2.8277745842933655e-01 -1.1849962919950485e-01</leafValues></_>
        <_>
          <internalNodes>
            0 -1 333 -1.4972352655604482e-03</internalNodes>
          <leafValues>
            2.8295931220054626e-01 -1.3307134807109833e-01</leafValues></_>
        <_>
          <internalNodes>
            0 -1 391 -3.4375493414700031e-03</internalNodes>
          <leafValues>
            2.4664622545242310e-01 -1.5592502057552338e-01</leafValues></_>
        <_>
          <internalNodes>
            0 -1 73 2.9906637966632843e-02</internalNodes>
          <leafValues>
            -1.5905739367008209e-01 2.6545953750610352e-01</leafValues></_>
        <_>
          <internalNodes>
            0 -1 245 1.1902935802936554e-02</internalNodes>
          <leafValues>
            9.6134237945079803e-02 -4.0807941555976868e-01</leafValues></_>
        <_>
          <internalNodes>
            0 -1 552 4.8195220530033112e-02</internalNodes>
          <leafValues>
            -7.7182851731777191e-02 5.2208715677261353e-01</leafValues></_>
        <_>
          <internalNodes>
            0 -1 560 2.5964383967220783e-03</internalNodes>
          <leafValues>
            9.2471979558467865e-02 -4.2028370499610901e-01</leafValues></_>
        <_>
          <internalNodes>
            0 -1 334 -8.0475453287363052e-03</internalNodes>
          <leafValues>
            3.0038419365882874e-01 -1.1584376543760300e-01</leafValues></_>
        <_>
          <internalNodes>
            0 -1 189 -2.4738339707255363e-03</internalNodes>
          <leafValues>
            3.5547870397567749e-01 -9.1547310352325439e-02</leafValues></_>
        <_>
          <internalNodes>
            0 -1 327 1.2098969891667366e-03</internalNodes>
          <leafValues>
            7.7414467930793762e-02 -4.5778444409370422e-01</leafValues></_>
